0.06680090725421906 0.030875399708747864 0.08205492794513702 0.17264200747013092 0.08246402442455292 -0.0351998507976532 -0.09937318414449692 0.16547252237796783 -0.17219458520412445 -0.01445913314819336 -0.13096357882022858 0.14365459978580475 0.0033296197652816772 0.1402507871389389 0.10230274498462677 -0.04286251962184906 0.09067921340465546 -0.17422975599765778 -0.043878406286239624 0.10866017639636993 0.17241092026233673 0.06562255322933197 0.18183760344982147 -0.05616006255149841 0.021610364317893982 0.11753372848033905 0.06862886250019073 -0.16306227445602417 -0.07120738923549652 -0.1611190140247345 -0.18429414927959442 0.03924413025379181 0.08088777959346771 0.02922995388507843 -0.08283990621566772 0.07718776166439056 0.1518322378396988 -0.025543108582496643 -0.03838929533958435 -0.09234382212162018 0.12480993568897247 0.04543127119541168 -0.067031629383564 0.08908118307590485 0.12241537868976593 -0.13804133236408234 -0.1843433827161789 0.007345989346504211 0.11644341051578522 0.16225998103618622 -0.03188447654247284 0.15401338040828705 -0.02032238245010376 -0.040947213768959045 -0.04349216818809509 0.15045545995235443 -0.15112869441509247 -0.1847488284111023 -0.17759957909584045 -0.009475886821746826 0.08889441192150116 -0.03922489285469055 -0.0614335834980011 0.029001757502555847 
0.0719032734632492 -0.1400107890367508 -0.06620175391435623 -0.12392967939376831 -0.017706647515296936 -0.16889792680740356 -0.11558028310537338 -0.10975614190101624 0.07163397967815399 -0.1766565442085266 0.02786371111869812 -0.07899785786867142 0.14088083803653717 0.058383792638778687 -0.1261988878250122 0.18880416452884674 -0.010723710060119629 0.15371863543987274 0.17208920419216156 -0.10600341856479645 -0.023440837860107422 -0.062329813838005066 0.06459163129329681 -0.07555943727493286 -0.03587004542350769 -0.1320580244064331 0.021043360233306885 0.07244010269641876 -0.15412497520446777 0.04792681336402893 -0.11623822152614594 -0.001163482666015625 -0.014851778745651245 0.15833373367786407 -0.10180693119764328 -0.07713095098733902 0.10225464403629303 -0.15571023523807526 0.043478742241859436 0.18484212458133698 -0.031045064330101013 0.14515896141529083 0.1502053588628769 0.08531497418880463 -0.15901990234851837 -0.10584849119186401 0.0715637356042862 0.06123410165309906 -0.09415071457624435 0.014373213052749634 -0.15930791199207306 -0.10426778346300125 0.04565712809562683 -0.11494702845811844 -0.014389410614967346 -0.09068793058395386 -0.17347683012485504 -0.10948622226715088 -0.01279480755329132 0.08446572721004486 0.09601809084415436 -0.08669156581163406 -0.0018451511859893799 -0.003362610936164856 
-0.11481676995754242 0.147511824965477 -0.142083078622818 0.11189357936382294 -0.02913282811641693 -0.18457193672657013 -0.18846412003040314 0.04987940192222595 0.06203360855579376 0.0984182208776474 -0.14552627503871918 -0.12995699048042297 0.13823051750659943 0.017354756593704224 -0.07457564026117325 0.12562401592731476 -0.1591283529996872 -0.055965036153793335 -0.13084162771701813 0.08617021143436432 0.049321308732032776 0.14485518634319305 -0.05169475078582764 -0.008942216634750366 0.01818782091140747 0.1549130529165268 -0.06926420331001282 -0.09119629114866257 0.015235871076583862 -0.0823829174041748 0.035839006304740906 -0.08654812723398209 0.1082613617181778 -0.0218469500541687 0.08620341122150421 0.09203000366687775 0.02308446168899536 -0.11417446285486221 -0.17285297811031342 0.1292574256658554 0.1587199717760086 -0.05977015197277069 -0.18514618277549744 -0.16803835332393646 0.15227417647838593 -0.06125633418560028 0.016339272260665894 0.031107589602470398 0.026389360427856445 -0.08339255303144455 0.08394958078861237 0.08991803228855133 -0.17399606108665466 -0.03228375315666199 -0.16171513497829437 0.03716675937175751 -0.014382541179656982 0.17516998946666718 -0.18807543814182281 0.15645061433315277 -0.11268048733472824 -0.030766770243644714 0.11315320432186127 -0.06426725536584854 
0.0646575540304184 0.1369018703699112 -0.10917195677757263 -0.16918478906154633 0.06463150680065155 -0.1371566206216812 -0.18573617935180664 0.05392071604728699 -0.04734392464160919 0.026791468262672424 0.023552745580673218 -0.14500883221626282 0.07417307794094086 -0.12339469790458679 0.028432533144950867 -0.08367160707712173 0.10105492174625397 0.12918724119663239 0.137124165892601 0.16767744719982147 0.15427394211292267 -0.17579247057437897 0.11373524367809296 -0.1415460854768753 -0.04382002353668213 -0.11074545234441757 -0.08782599121332169 -0.0018468797206878662 0.05711892247200012 0.1526021808385849 -0.012442067265510559 0.1545214205980301 0.0486748069524765 0.16241644322872162 -0.16735662519931793 -0.13890913128852844 0.01833544671535492 -0.1274336576461792 0.14848829805850983 0.16598699986934662 -0.05311089754104614 0.030822262167930603 0.14060036838054657 0.14720220863819122 0.017067700624465942 -0.14434263110160828 0.18506325781345367 -0.1183999627828598 -0.17957289516925812 -0.18442392349243164 -0.00010690093040466309 0.08453164994716644 0.019068166613578796 -0.1317860633134842 0.1827751249074936 0.031223326921463013 0.13915352523326874 0.07503746449947357 0.13956917822360992 -0.11560665816068649 0.051875039935112 -0.015146568417549133 -0.04546678066253662 -0.134928360581398 
-0.056027770042419434 0.17827050387859344 0.13568569719791412 0.07597951591014862 -0.0700986310839653 -0.04316595196723938 -0.09440892934799194 -0.18815438449382782 0.16533200442790985 -0.1262107938528061 -0.02873256802558899 -0.1341523677110672 -0.07345268875360489 -0.14943867921829224 -0.15633676946163177 -0.16577740013599396 0.04339635372161865 0.1887993961572647 0.1261536031961441 0.17421241104602814 0.12251438200473785 -0.016932889819145203 0.1273762732744217 -0.16662943363189697 0.1366475373506546 0.09730668365955353 -0.1617196649312973 0.15941844880580902 0.12425373494625092 0.17596666514873505 0.10942144691944122 0.12507294118404388 -0.03498449921607971 -0.10613077133893967 0.06367792189121246 0.15196983516216278 -0.10524146258831024 -0.13350671529769897 -0.003200933337211609 0.11496679484844208 -0.07766009867191315 -0.07049296796321869 0.010410010814666748 -0.17851734161376953 0.07482819259166718 0.14551560580730438 0.10833771526813507 -0.12246794253587723 0.15269379317760468 -0.0993548259139061 0.06435506045818329 0.14096595346927643 -0.14342091977596283 -0.16279542446136475 0.0827554315328598 -0.10144791752099991 -0.16647988557815552 -0.10189443081617355 0.184164360165596 0.17449505627155304 -0.0223553329706192 0.10907308757305145 0.012263551354408264 0.013083159923553467 
0.019621819257736206 0.0449797660112381 0.11381377279758453 0.06394989788532257 0.10740412771701813 0.06483574211597443 -0.1170080229640007 -0.02339184284210205 -0.04840417206287384 -0.13705217838287354 -0.053005337715148926 -0.06483235955238342 0.07315431535243988 -0.1709766685962677 0.0944540947675705 0.07702060043811798 -0.0006734579801559448 0.17501257359981537 -0.05322884023189545 0.07380340993404388 -0.007937893271446228 0.0787167102098465 -0.02409777045249939 -0.10012518614530563 -0.14654050767421722 0.008407190442085266 0.11265556514263153 0.11689336597919464 -0.051847875118255615 0.09370134770870209 -0.16417285799980164 0.1398354023694992 0.02745261788368225 0.03732767701148987 -0.09529092162847519 0.17231018841266632 -0.09962627291679382 0.15160001814365387 0.09539864957332611 0.01746496558189392 0.04772086441516876 -0.02378043532371521 0.06854300200939178 0.11335454881191254 -0.07309799641370773 0.04276701807975769 0.18746672570705414 -0.15052229166030884 0.07748730480670929 -0.11054977029561996 0.15401040017604828 0.16780833899974823 0.07080434262752533 -0.13382300734519958 -0.18520168960094452 -0.010981753468513489 -0.16743671894073486 -0.11921177059412003 0.013102427124977112 0.1860152631998062 0.03636026382446289 -0.0280207097530365 -0.047448694705963135 0.09266828000545502 
0.04693077504634857 0.18069104850292206 0.1632714420557022 0.05394454300403595 -0.006229117512702942 -0.04911839962005615 0.1654733270406723 -0.15735885500907898 0.07617305219173431 -0.16952969133853912 -0.15492676198482513 -0.07616941630840302 -0.059438496828079224 -0.004974395036697388 -0.0856831967830658 -0.18417486548423767 0.02381865680217743 0.07470791041851044 0.10400162637233734 0.015177816152572632 -0.12708348035812378 -0.0072968751192092896 0.03748634457588196 0.13249222934246063 -0.13291245698928833 0.009532183408737183 -0.11161047965288162 0.07985810935497284 -0.18207231163978577 -0.08159750699996948 -0.172610342502594 0.15145404636859894 -0.08540364354848862 -0.021398812532424927 0.0642944723367691 0.05533561110496521 -0.07631514966487885 -0.07032853364944458 -0.1285402774810791 0.008488848805427551 -0.17725874483585358 0.16158641874790192 0.030358240008354187 -0.14953383803367615 -0.06895074248313904 0.1035277396440506 -0.001130223274230957 -0.049856990575790405 0.016607359051704407 -0.13434463739395142 0.09505130350589752 -0.05741409957408905 0.1501576453447342 0.04589103162288666 0.04118764400482178 -0.12564897537231445 -0.01977616548538208 -0.09380649775266647 0.06301112473011017 -0.1313054859638214 -0.051481738686561584 -0.1628263145685196 0.005920827388763428 -0.039518803358078 
0.011984020471572876 0.12641160190105438 0.012504562735557556 -0.11824645102024078 -0.01799708604812622 0.0518355518579483 -0.12816846370697021 0.10403935611248016 -0.15900462865829468 0.16246794164180756 -0.12706604599952698 -0.1711592823266983 0.0049443840980529785 -0.08805160969495773 -0.17904327809810638 0.02559317648410797 0.16991834342479706 0.0193651020526886 -0.08983153849840164 0.0033860057592391968 0.07577283680438995 0.06290684640407562 -0.10642530769109726 0.13865424692630768 0.04732955992221832 0.07158468663692474 0.06845490634441376 0.07019941508769989 0.027975156903266907 0.13806508481502533 0.05937984585762024 0.12695907056331635 -0.036922648549079895 0.15097369253635406 0.1235884577035904 0.13957665860652924 0.0660635381937027 -0.08405569940805435 -0.061141207814216614 0.11047913134098053 0.055384740233421326 -0.10030128806829453 -0.10095425695180893 -0.09191343188285828 -0.040293559432029724 0.1880376785993576 0.15864871442317963 -0.09594431519508362 -0.06255988776683807 0.14174877107143402 -0.1472841203212738 0.11956419050693512 -0.15797924995422363 0.017400473356246948 0.1752796620130539 0.1409599334001541 0.03394496440887451 0.126109316945076 0.15917523205280304 0.07624645531177521 -0.009177044034004211 0.16696806252002716 0.0013270378112792969 -0.04340009391307831 
-0.019704610109329224 0.14418332278728485 -0.0690581351518631 0.09390957653522491 -0.10623530298471451 0.07245983183383942 0.13191916048526764 0.016383424401283264 0.04585622251033783 0.0875156968832016 0.015098199248313904 0.027232035994529724 -0.08668848127126694 0.13933493196964264 0.008193835616111755 -0.12588536739349365 0.15464426577091217 0.021156519651412964 -0.13006223738193512 0.06584407389163971 -0.019468486309051514 -0.14319103956222534 -0.10777278244495392 0.0925484150648117 -0.09503481537103653 0.15050609409809113 -0.10278545320034027 0.17354844510555267 -0.1652810275554657 0.13461248576641083 -0.08979833126068115 0.1634155958890915 -0.04579618573188782 0.11961834132671356 0.0343606173992157 0.030758902430534363 -0.13232022523880005 0.067692831158638 0.18572892248630524 0.13511158525943756 0.026705890893936157 -0.0373096764087677 0.03028959035873413 -0.11096388846635818 0.03235071897506714 -0.08382534235715866 0.18368519842624664 0.13491131365299225 0.08405135571956635 0.0803118497133255 -0.16139663755893707 -0.1819082647562027 0.08496148884296417 -0.1439860314130783 -0.1852455735206604 -0.09877552837133408 -0.10637340694665909 0.14794273674488068 0.10457609593868256 -0.026766151189804077 0.0785161703824997 -0.0976133793592453 0.15600039064884186 0.11092172563076019 
-0.18574807047843933 0.08904285728931427 0.05044667422771454 -0.14205250144004822 -0.17494115233421326 0.08310143649578094 -0.1676015704870224 -0.12489908188581467 0.0696343332529068 -0.10536455363035202 -0.11342622339725494 0.1638568490743637 -0.14533188939094543 -0.013115465641021729 -0.12922228872776031 0.009555444121360779 0.09578217566013336 0.025419846177101135 0.15221311151981354 -0.0177316814661026 -0.16265912353992462 0.11760781705379486 0.05278429388999939 0.13559044897556305 -0.07867880910634995 -0.07897733896970749 0.1618150919675827 -0.014050126075744629 0.12261603772640228 0.014954224228858948 -0.1718585193157196 0.17730478942394257 0.02337534725666046 -0.12141206115484238 0.10433091223239899 -0.1695464849472046 0.0902431458234787 -0.025704652070999146 0.02141888439655304 -0.1596076339483261 0.18095757067203522 0.1866125911474228 0.07240967452526093 -0.05660392343997955 0.04123389720916748 -0.08955855667591095 0.1244322806596756 0.15522123873233795 -0.14631326496601105 0.1490909606218338 0.1546405404806137 0.012048348784446716 0.08606906235218048 0.11731301248073578 -0.18182173371315002 0.028867289423942566 0.11994089186191559 0.14681042730808258 -0.05063095688819885 -0.012744292616844177 -0.061878904700279236 -0.13355402648448944 0.08938498795032501 0.12843473255634308 
0.009953513741493225 0.0016282200813293457 0.03581894934177399 -0.036874547600746155 0.18472711741924286 -0.06888078898191452 0.05335591733455658 -0.047279149293899536 -0.1464834213256836 -0.03551693260669708 -0.013099998235702515 -0.016347244381904602 0.042332470417022705 -0.1732422262430191 -0.18231183290481567 -0.06159481406211853 0.049313828349113464 -0.015721112489700317 -0.14664314687252045 -0.08794960379600525 -0.1688847690820694 -0.131498783826828 0.16974173486232758 -0.042458921670913696 0.09190715849399567 0.13003559410572052 0.16018588840961456 0.058088332414627075 -0.059928059577941895 -0.1815061867237091 -0.12306636571884155 0.03987759351730347 0.10338707268238068 -0.1567075252532959 -0.0863843485713005 -0.12659606337547302 -0.0802280455827713 -0.0637565404176712 -0.00210021436214447 0.005059465765953064 -0.13926111161708832 0.03422585129737854 -0.01654621958732605 0.05104851722717285 0.18764306604862213 0.17959631979465485 -0.14909738302230835 -0.005359172821044922 0.18139134347438812 0.11946593225002289 -0.1215205118060112 -0.0374552458524704 -0.061033934354782104 0.06539417803287506 -0.03408324718475342 0.04531353712081909 -0.12642699480056763 0.0301760733127594 -0.18620391190052032 0.15793465077877045 0.17095498740673065 -0.015734001994132996 -0.03417174518108368 -0.13982650637626648 
-0.14059950411319733 0.04556959867477417 0.1648932844400406 0.025287747383117676 0.13038010895252228 0.06065160036087036 0.09094049036502838 -0.15089604258537292 0.08343280851840973 0.0651765912771225 0.1880490630865097 0.11902876198291779 -0.03042738139629364 0.0414489209651947 -0.1600998491048813 0.15254385769367218 -0.17528986930847168 -0.06147606670856476 0.17087696492671967 -0.15759414434432983 -0.13967406749725342 0.14736147224903107 -0.04343295097351074 0.08346949517726898 -0.16057223081588745 -0.00234435498714447 -0.059282317757606506 -0.07296010106801987 -0.025278061628341675 -0.022801578044891357 -0.07381388545036316 -0.015060707926750183 0.13819663226604462 -0.09679313749074936 -0.055610477924346924 0.0288008451461792 0.15761233866214752 -0.1870349943637848 -0.05007427930831909 -0.07194893807172775 0.0023524612188339233 -0.09960603713989258 -0.14616858959197998 -0.13836967945098877 -0.11325349658727646 0.14858587086200714 0.026142627000808716 0.13696230947971344 -0.14959277212619781 0.11404673755168915 -0.0032183974981307983 -0.058142319321632385 0.05568614602088928 -0.18407416343688965 -0.12986227869987488 0.1257219761610031 -0.06728027760982513 -0.07513251900672913 0.052845075726509094 0.12719310820102692 0.12562020123004913 0.06692169606685638 0.15082280337810516 -0.05522496998310089 
0.1525152176618576 -0.13646236062049866 0.0037708580493927 -0.053425922989845276 -0.026260405778884888 -0.0722421407699585 0.12031932175159454 0.015448510646820068 0.10734732449054718 -0.10934801399707794 -0.12957608699798584 -0.07080201059579849 0.16940386593341827 -0.0867985337972641 -0.11857248842716217 -0.18375104665756226 0.1674572080373764 -0.16264744102954865 0.133665069937706 0.1744878739118576 -0.011197537183761597 0.038406506180763245 0.07152421772480011 0.05044630169868469 0.11636705696582794 0.16478560864925385 -0.18090789020061493 -0.15855690836906433 0.09039749205112457 -0.164385586977005 0.06041410565376282 -0.044129759073257446 0.025038674473762512 -0.16424420475959778 -0.04899333417415619 -0.17215444147586823 0.16164515912532806 -0.08776509761810303 -0.12597870826721191 0.13098226487636566 -0.026499658823013306 -0.1353580355644226 -0.037230268120765686 -0.0008921772241592407 0.13059858977794647 -0.09746500849723816 0.0009291172027587891 -0.044658005237579346 0.04233396053314209 0.022590339183807373 -0.15475201606750488 -0.1834537386894226 0.17408619821071625 0.15621952712535858 0.055685997009277344 -0.12217919528484344 -0.09734765440225601 -0.06782287359237671 -0.005175888538360596 -0.013814076781272888 -0.028131961822509766 -0.05490626394748688 0.0806063562631607 -0.10276768356561661 
-0.14479446411132812 0.11451296508312225 -0.09911136329174042 0.16191567480564117 -0.017346560955047607 -0.11480037122964859 -0.1609584093093872 0.1316388100385666 -0.10576874017715454 -0.0876547247171402 0.12286816537380219 -0.036897554993629456 -0.023551449179649353 -0.11155230551958084 -0.007056176662445068 -0.08663380891084671 -0.16969504952430725 -0.0590205043554306 0.04147498309612274 -0.15892499685287476 0.1313066929578781 0.12981288135051727 -0.0826260894536972 0.13544495403766632 -0.17607517540454865 -0.11149981617927551 -0.09013454616069794 0.06707589328289032 -0.18041209876537323 -0.12146405130624771 -0.032468006014823914 0.10274286568164825 0.17603664100170135 -0.07469188421964645 0.15871186554431915 0.08608369529247284 0.10612167418003082 0.1734924465417862 -0.18801671266555786 0.11361320316791534 -0.1500425487756729 -0.0320592075586319 0.18677015602588654 0.18797124922275543 -0.040486276149749756 0.07017351686954498 0.1732020229101181 0.03322093188762665 -0.11570645868778229 0.18756313621997833 0.1317158192396164 -0.14804492890834808 0.048059359192848206 -0.04236118495464325 -0.00327889621257782 -0.11330705136060715 -0.03772997856140137 -0.14542698860168457 -0.06842562556266785 0.17372529208660126 0.13592921197414398 0.08573414385318756 -0.17547734081745148 -0.13644307851791382 
0.04444602131843567 -0.01474308967590332 -0.0903804674744606 0.02705352008342743 -0.028789132833480835 -0.08889667689800262 -0.0706683099269867 -0.08882802724838257 -0.026119112968444824 0.05582275986671448 -0.10920581221580505 0.0035942047834396362 0.14073096215724945 0.14543910324573517 -0.14946997165679932 0.13667415082454681 0.18102286756038666 0.09815181791782379 0.15985794365406036 0.10896764695644379 0.12055642902851105 0.05786442756652832 -0.030871346592903137 -0.13783776760101318 -0.15516285598278046 0.08188159763813019 -0.169936865568161 0.07644464075565338 0.05514542758464813 0.13645727932453156 -0.002776607871055603 -0.0652119442820549 0.11074782907962799 0.10382185876369476 0.08223862946033478 0.08842889964580536 0.04867234826087952 0.10675476491451263 -0.1874540001153946 -0.051863476634025574 0.07813085615634918 -0.12296974658966064 0.09722669422626495 0.15200664103031158 0.18764741718769073 -0.12205082923173904 0.03583523631095886 -0.028746694326400757 0.030395418405532837 0.16075904667377472 0.08076296746730804 0.08552230894565582 0.067350372672081 -0.05831959843635559 -0.11984419077634811 0.026251688599586487 0.004803836345672607 0.12549100816249847 0.03315398097038269 -0.16151733696460724 -0.09151017665863037 -0.13934314250946045 0.13548366725444794 0.07644857466220856 
0.10743065178394318 0.035495176911354065 -0.01711598038673401 -0.1824226677417755 -0.12746897339820862 -0.1736930012702942 -0.17998935282230377 0.05256858468055725 0.1026524156332016 0.08391349017620087 -0.025691300630569458 -0.12344040721654892 0.05640602111816406 0.034070342779159546 0.11480669677257538 -0.1277320384979248 0.06933613121509552 0.05542469024658203 -0.09733891487121582 0.1729351431131363 -0.1598716676235199 -0.038814857602119446 -0.17054128646850586 0.01905740797519684 0.11104108393192291 0.16394220292568207 0.18211643397808075 -0.10758084058761597 0.1264979988336563 0.008346498012542725 0.1426713913679123 -0.1617020070552826 -0.04091319441795349 -0.12703707814216614 0.12068285048007965 -0.03887934982776642 0.04810333251953125 -0.02491210401058197 0.16075335443019867 -0.1058913841843605 -0.187501460313797 -0.18284901976585388 -0.14676061272621155 0.05649712681770325 0.18264873325824738 -0.13226589560508728 -0.13344265520572662 0.03928469121456146 -0.175874263048172 0.11273066699504852 0.11192180216312408 0.1483014076948166 0.1558925360441208 -0.046099111437797546 0.16835276782512665 -0.18411020934581757 0.07115261256694794 -0.038767993450164795 -0.16997522115707397 -0.10875821858644485 0.07872973382472992 -0.11631464213132858 0.02794654667377472 -0.14378578960895538 
-0.12907129526138306 0.09169404208660126 -0.07354730367660522 0.16761822998523712 0.07148443162441254 -0.17310090363025665 -0.011701405048370361 -0.162399560213089 0.15653453767299652 -0.03345353901386261 -0.020928606390953064 0.08936266601085663 0.14486174285411835 0.005332276225090027 -0.013164788484573364 -0.06476691365242004 -0.14249590039253235 -0.1526222825050354 -0.020498126745224 0.039665162563323975 0.10488481819629669 -0.031730517745018005 -0.16735954582691193 -0.044738367199897766 -0.0816837027668953 0.09215463697910309 -0.00331057608127594 -0.06563130766153336 -0.10756673663854599 -0.1306183934211731 0.14172352850437164 0.16986162960529327 0.1582506150007248 0.13021530210971832 0.1531560868024826 -0.04112052917480469 0.15439914166927338 -0.14800980687141418 0.0844167023897171 -0.09754122048616409 0.11183564364910126 -0.08272967487573624 -0.12649241089820862 0.06136469542980194 0.09910492599010468 -0.09866522997617722 -0.10959375649690628 -0.03136667609214783 -0.04089559614658356 0.09389875829219818 0.16605786979198456 0.11172144114971161 0.04491810500621796 -0.14282740652561188 -0.07240594923496246 0.10272584855556488 -0.024183213710784912 0.07343845069408417 -0.058140844106674194 0.14790283143520355 -0.12237487733364105 0.046691834926605225 0.06646065413951874 -0.02939513325691223 
-0.04336655139923096 -0.029118433594703674 0.07220377027988434 -0.11556748300790787 0.06540746986865997 0.14071036875247955 -0.08128082007169724 0.06844530999660492 0.08617185056209564 0.13931165635585785 0.031103014945983887 0.1607806235551834 0.10633058845996857 -0.03985796868801117 0.05485953390598297 -0.023383870720863342 -0.11984804272651672 -0.16678191721439362 0.18418572843074799 0.09735025465488434 0.04921148717403412 -0.12650181353092194 -0.06378573179244995 -0.05886349081993103 -0.056492358446121216 -0.011102959513664246 -0.18336904048919678 0.17434217035770416 -0.11082857847213745 0.10149328410625458 0.08459602296352386 0.1038365513086319 0.06855373084545135 0.013999313116073608 0.028517112135887146 -0.09349756687879562 0.08053372800350189 -0.043203070759773254 0.17171786725521088 0.04914657771587372 -0.030194371938705444 0.008090928196907043 -0.06473046541213989 -0.06985493749380112 0.05157655477523804 0.027745887637138367 0.10625655949115753 0.1299910992383957 -0.04803955554962158 -0.0644485205411911 -0.0909830778837204 0.10036219656467438 -0.1791960597038269 0.045377567410469055 -0.038736045360565186 0.11174236238002777 0.18223492801189423 0.1362171322107315 0.083064004778862 0.0843973308801651 0.04644906520843506 -0.16107234358787537 0.17217420041561127 0.11216147243976593 
0.10191144049167633 -0.1194320097565651 -0.10653840005397797 -0.14679160714149475 0.1369033306837082 -0.05141343176364899 -0.03220705687999725 0.1855950802564621 0.12893886864185333 -0.0516882985830307 -0.1424543857574463 -0.17881685495376587 -0.047572776675224304 0.017228662967681885 -0.16240419447422028 -0.06152813136577606 -0.08046957105398178 -0.03974124789237976 -0.12942883372306824 -0.18357156217098236 0.12338601052761078 -0.14225482940673828 0.10128135979175568 -0.0772860124707222 0.08490775525569916 -0.050789207220077515 -0.14117136597633362 -0.08509694039821625 -0.14145991206169128 0.15454478561878204 -0.14806081354618073 0.016820773482322693 -0.1295391023159027 0.11762170493602753 0.12912417948246002 -0.12132300436496735 -0.030611708760261536 -0.03478462994098663 -0.11941398680210114 0.162464901804924 0.0843530148267746 0.026266127824783325 0.11841075122356415 0.019133195281028748 0.17195798456668854 -0.04996010661125183 -0.08204992115497589 -0.11786218732595444 0.06094713509082794 -0.13521124422550201 0.13080854713916779 0.05602163076400757 -0.1471036672592163 0.011451706290245056 -0.07850061357021332 -0.0431135892868042 -0.12179648131132126 -0.07330987602472305 0.014845162630081177 0.03051924705505371 0.12248487770557404 -0.040069058537483215 0.14464418590068817 -0.06111910939216614 
-0.07973203808069229 -0.17696955800056458 -0.12667952477931976 -0.12223473191261292 0.16197650134563446 0.053995534777641296 0.11531062424182892 0.023158878087997437 -0.03788241744041443 0.028116285800933838 0.08271931111812592 0.17226587235927582 0.10168279707431793 -0.06616012006998062 0.020783469080924988 0.09835340082645416 -0.04492819309234619 -0.009410113096237183 -0.010872825980186462 0.037875980138778687 0.10635794699192047 -0.13905581831932068 -0.007417470216751099 -0.15513968467712402 -0.15843631327152252 0.09793876111507416 0.018859118223190308 -0.10180053859949112 -0.0765567421913147 -0.1703823059797287 -0.06907757371664047 -0.10460194945335388 -0.10280172526836395 0.037137582898139954 0.00431235134601593 -0.08256341516971588 -0.0913817435503006 0.02262355387210846 0.09048648178577423 0.023524150252342224 0.051666781306266785 0.09318788349628448 0.05788779258728027 0.10641352832317352 -0.16494891047477722 0.18569113314151764 0.08395399153232574 0.026517868041992188 0.008420899510383606 -0.181977778673172 -0.04090425372123718 -0.094636470079422 0.09260351955890656 -0.0945034846663475 -0.04014700651168823 0.1561070829629898 0.129843071103096 -0.12514832615852356 0.15567375719547272 0.11066146194934845 -0.13840901851654053 -0.11060302704572678 -0.14382706582546234 0.15410567820072174 
-0.01106339693069458 -0.059180110692977905 -0.07636117935180664 -0.1470569372177124 0.1434563845396042 0.1407613903284073 -0.16034284234046936 0.02790077030658722 -0.1610272079706192 -0.025853857398033142 0.09256528317928314 -0.17864950001239777 0.010934427380561829 -0.04103013873100281 -0.060527265071868896 -0.11576452106237411 -0.024535953998565674 0.14488236606121063 0.16963733732700348 0.16286681592464447 0.057884544134140015 0.16040627658367157 0.0561399906873703 0.13108699023723602 0.002492472529411316 0.08337222039699554 -0.18731863796710968 -0.18241269886493683 -0.08400858938694 0.0540180504322052 -0.15435311198234558 -0.08553624153137207 0.0966307669878006 -0.18066860735416412 -0.00928407907485962 -0.12538057565689087 -0.06661834567785263 0.14011774957180023 -0.1666153073310852 -0.08431243151426315 0.16470609605312347 -0.016344532370567322 -0.09244844317436218 -0.017057090997695923 -0.07109997421503067 -0.06795313209295273 -0.05331055819988251 -0.16646263003349304 0.1683209389448166 -0.125508651137352 -0.1357615888118744 0.08433721959590912 -0.13414792716503143 0.06480513513088226 0.1742313653230667 -0.005442798137664795 -0.028876006603240967 0.09692566096782684 -0.143410786986351 0.10647107660770416 -0.06357865035533905 -0.0563860684633255 -0.1674794703722 -0.17021338641643524 
0.09898011386394501 0.10926051437854767 0.07549820840358734 -0.14461156725883484 -0.1450396627187729 0.1687970608472824 -0.10575193166732788 0.18421722948551178 0.027727678418159485 0.0638149231672287 -0.04020725190639496 -0.09132325649261475 -0.10706135630607605 0.028937682509422302 -0.04231667518615723 0.1302030235528946 -0.06785326451063156 -0.021389469504356384 -0.020478680729866028 -0.11409500241279602 -0.06763999164104462 0.13919620215892792 -0.15178146958351135 -0.09493060410022736 0.15909798443317413 0.0821610540151596 0.07636414468288422 0.029963955283164978 -0.10329896956682205 -0.016295358538627625 -0.09461529552936554 0.06340120732784271 0.15142951905727386 0.02092711627483368 -0.0034263432025909424 0.012874603271484375 -0.0692676454782486 0.05561825633049011 0.06131313741207123 -0.06885469704866409 0.036175355315208435 0.09783752262592316 0.06478311121463776 0.04747037589550018 -0.10744636505842209 0.018470823764801025 -0.07190122455358505 -0.14810390770435333 -0.06900081783533096 -0.1080128401517868 -0.02612343430519104 -0.14445917308330536 -0.01281467080116272 -0.11228029429912567 -0.029356688261032104 -0.027851775288581848 0.1543993204832077 0.05024319887161255 0.06472249329090118 -0.08571892231702805 -0.13609859347343445 -0.1249932274222374 0.17194102704524994 0.03071470558643341 
0.14071227610111237 -0.08529412746429443 0.020952701568603516 0.16422851383686066 -0.03806951642036438 0.03356766700744629 -0.07530810683965683 -0.1877448409795761 0.09946827590465546 0.11574150621891022 -0.024670511484146118 0.17769329249858856 0.164643332362175 -0.020774558186531067 0.18279366195201874 -0.06247827410697937 -0.009638920426368713 0.013455361127853394 -0.11406780779361725 0.07084651291370392 0.11603043973445892 0.0015228092670440674 -0.18223856389522552 -0.022367581725120544 0.02249494194984436 0.15975944697856903 0.08001305162906647 0.15804339945316315 -0.14351795613765717 -0.006552353501319885 0.16843070089817047 0.07825206220149994 -0.12846684455871582 0.02506183087825775 0.06808699667453766 -0.16437974572181702 -0.1571315973997116 0.05959323048591614 0.15552084147930145 0.08596546947956085 -0.11118694394826889 -0.008072346448898315 0.11875282227993011 -0.012979775667190552 0.1710589975118637 0.17777787148952484 0.0071083009243011475 -0.04174916446208954 -0.08065259456634521 0.009026631712913513 -0.07154831290245056 0.16469626128673553 -0.18028756976127625 0.1672455221414566 -0.06976047903299332 0.08669807016849518 -0.18222816288471222 -0.02345399558544159 0.1416293829679489 0.12946484982967377 0.09677846729755402 0.17294494807720184 -0.08789053559303284 -0.1454186588525772 
0.0613982230424881 -0.13958966732025146 -0.01101963222026825 0.14883391559123993 0.1442170888185501 -0.1857258826494217 -0.009808704257011414 -0.140000581741333 0.1444983035326004 0.005761042237281799 -0.01871044933795929 0.0974520593881607 0.05561074614524841 -0.09966549277305603 -0.09722518920898438 -0.15753048658370972 0.0108567476272583 0.1740565150976181 -0.02559572458267212 -0.186808779835701 0.16708843410015106 -0.10996367037296295 -0.015918880701065063 0.1801370233297348 -0.1159963607788086 -0.09274732321500778 -0.05948539078235626 0.16661874949932098 0.06210176646709442 0.16426940262317657 -0.10570467263460159 0.022105470299720764 -0.07175282388925552 -0.159674271941185 -0.06621590256690979 0.041559308767318726 0.14639632403850555 -0.15403427183628082 0.035727158188819885 0.11478109657764435 0.09323914349079132 -0.025657862424850464 0.10714156925678253 0.019159585237503052 0.1599537879228592 0.006512999534606934 -0.050405651330947876 -0.10650069266557693 -0.16511373221874237 0.04036831855773926 0.07704131305217743 -0.15070970356464386 0.1345013529062271 0.002320796251296997 -0.16182269155979156 0.01789747178554535 -0.14504069089889526 0.0187598317861557 -0.008657887578010559 0.035451486706733704 -0.1359415501356125 0.05273774266242981 0.042783141136169434 0.01665419340133667 
0.12685681879520416 0.025642335414886475 0.008738920092582703 -0.1733589619398117 -0.03140385448932648 -0.08123213797807693 0.051172539591789246 -0.11596783995628357 0.005448594689369202 -0.13660937547683716 0.0929802805185318 0.04539525508880615 0.03779442608356476 -0.1741448938846588 0.03628595173358917 0.18754811584949493 -0.1852264106273651 0.016645774245262146 -0.021390214562416077 0.008225113153457642 0.11445595324039459 -0.09718847274780273 -0.18160754442214966 0.07678382098674774 -0.14106176793575287 0.09002585709095001 -0.06567604839801788 -0.16345523297786713 0.17268343269824982 0.04981154203414917 -0.08133678138256073 -0.03701508045196533 -0.07101894170045853 -0.18615317344665527 0.1820291131734848 0.16750793159008026 -0.012498617172241211 0.1458730846643448 0.17273958027362823 -0.14010857045650482 -0.1823517084121704 -0.08683732897043228 0.02776476740837097 0.05640868842601776 0.18028958141803741 -0.11299903690814972 -0.10827620327472687 0.1880813091993332 0.07799603044986725 0.005506262183189392 0.11828954517841339 0.07777176797389984 -0.09986649453639984 0.11416055262088776 0.011620774865150452 -0.09106208384037018 -0.04432445764541626 0.13882078230381012 0.09569971263408661 -0.034749507904052734 -0.07862215489149094 0.06498779356479645 0.15677939355373383 -0.013650447130203247 
-0.043399274349212646 0.06877706944942474 0.1833689659833908 -0.14640472829341888 0.03587913513183594 0.12896572053432465 0.08391682803630829 -0.03018215298652649 0.16055117547512054 -0.07346832007169724 0.039981693029403687 -0.0240040123462677 -0.0056878626346588135 -0.06825961172580719 0.18591676652431488 0.09270377457141876 0.08344535529613495 0.1632697433233261 0.04946206510066986 -0.14566592872142792 -0.15746065974235535 -0.05880868434906006 -0.10749383270740509 0.14427854120731354 0.1621996909379959 0.1221478134393692 0.0033336877822875977 -0.12151091545820236 -0.016456320881843567 -0.0046984851360321045 -0.1572980284690857 0.15098212659358978 0.08681829273700714 -0.0637296587228775 -0.12005992233753204 -0.04847811162471771 0.1582312434911728 -0.03753167390823364 0.004715651273727417 -0.12137049436569214 -0.03811255097389221 0.187080517411232 0.17176641523838043 0.17944251000881195 0.030513644218444824 0.07040856778621674 -0.14255936443805695 0.0579819530248642 -0.11880695819854736 0.15308554470539093 0.1610829383134842 -0.17549684643745422 0.15571145713329315 -0.14033997058868408 0.008646413683891296 0.130034402012825 0.02644507586956024 0.16045983135700226 -0.1527947634458542 -0.12689369916915894 -0.10395170748233795 0.11030830442905426 0.08400143682956696 -0.11206534504890442 
-0.04343785345554352 0.1751057654619217 -0.12721240520477295 -0.1563052237033844 0.09949325025081635 -0.157728910446167 0.08471120893955231 -0.095570407807827 0.08759327232837677 -0.18118737637996674 -0.04641196131706238 0.1251610964536667 0.12998296320438385 -0.07323504239320755 0.1561502069234848 -0.1439836621284485 -0.1589757204055786 0.10132886469364166 0.09337155520915985 -0.010559916496276855 -0.12494821101427078 0.16521678864955902 -0.1575215458869934 0.05550962686538696 0.05932192504405975 0.16943006217479706 0.09876252710819244 -0.06737232953310013 0.018576115369796753 -0.10855269432067871 0.07853324711322784 -0.0552549809217453 -0.18714754283428192 -0.09833719581365585 -0.03480002284049988 0.040222570300102234 0.06867648661136627 -0.17101123929023743 0.007971346378326416 -0.04780955612659454 -0.13473950326442719 -0.1641221046447754 -0.09162459522485733 0.14703817665576935 -0.029563963413238525 0.09914638102054596 0.1637088805437088 -0.0037810206413269043 -0.11880981922149658 -0.049641773104667664 -0.09983256459236145 -0.06777898967266083 0.13268031179904938 0.11654065549373627 0.18626345694065094 0.09308309853076935 0.06647495925426483 0.01902902126312256 -0.15035784244537354 -0.08766576647758484 0.12514816224575043 -0.03948308527469635 0.05473893880844116 0.08646290004253387 
-0.15107285976409912 -0.05333428084850311 -0.17872388660907745 -0.156410813331604 0.010652735829353333 0.15408818423748016 0.14476783573627472 0.13185612857341766 0.0832049697637558 -0.01229827105998993 0.007295548915863037 0.11014537513256073 0.1731141358613968 -0.14507600665092468 0.10623596608638763 -0.07401204854249954 -0.11205548048019409 -0.0688788965344429 0.0853990763425827 -0.11637809872627258 0.08007250726222992 -0.08009380102157593 0.04766368865966797 -0.0009399056434631348 -0.1179676428437233 -0.11211621761322021 0.1711367815732956 0.04971832036972046 -0.1060997024178505 -0.09361352026462555 0.07454727590084076 0.009283885359764099 0.05696241557598114 -0.12203418463468552 0.0258776992559433 -0.11863518506288528 0.06372161209583282 0.03946484625339508 -0.03705763816833496 -0.10313861072063446 -0.17462359368801117 0.002396717667579651 -0.09138014167547226 -0.025715574622154236 -0.12849697470664978 -0.11668935418128967 0.0605081170797348 0.14241726696491241 -0.15898820757865906 0.010036125779151917 0.1740673929452896 -0.0039595067501068115 -0.0666894018650055 -0.18745899200439453 0.0039766281843185425 0.11650930345058441 -0.1178891733288765 0.1404523402452469 -0.14800821244716644 -0.013972356915473938 0.05208079516887665 -0.1513865888118744 0.12289930880069733 0.14136068522930145 
-0.12137544900178909 -0.1284351944923401 0.1883043795824051 0.1284300833940506 -0.06302261352539062 -0.07342240959405899 -0.05095873773097992 -0.14896908402442932 -0.1489214450120926 0.12211500108242035 0.07389198243618011 0.029088094830513 -0.09567917883396149 -0.004476562142372131 0.06306053698062897 0.18691258132457733 -0.0004261434078216553 0.010939061641693115 0.03983566164970398 0.077791228890419 0.060267552733421326 0.10045339167118073 0.09185396134853363 0.04456821084022522 0.055572837591171265 -0.003006875514984131 -0.09865646809339523 0.018114909529685974 0.18706579506397247 0.0947498232126236 -0.11685966700315475 -0.057174667716026306 -0.13390186429023743 -0.05538126826286316 0.1335488110780716 -0.04337190091609955 0.13906331360340118 0.03133654594421387 0.17960010468959808 0.07556889951229095 0.11791001260280609 -0.03231005370616913 -0.11864572763442993 -0.08995990455150604 0.009648248553276062 -0.01370924711227417 -0.13844333589076996 -0.17374135553836823 -0.07646987587213516 0.1850980967283249 0.04274730384349823 0.13611723482608795 0.18075959384441376 -0.1683090776205063 -0.18731339275836945 -0.022424697875976562 0.15762610733509064 -0.1858469545841217 -0.16259020566940308 0.14943896234035492 0.09756483137607574 0.09483303129673004 0.03234727680683136 -0.17532971501350403 
-0.05696357786655426 -0.023869723081588745 -0.08413542807102203 0.09143340587615967 0.08880366384983063 -0.07188624143600464 -0.03214642405509949 -0.0883081704378128 -0.03067837655544281 -0.03742966055870056 0.08879511058330536 -0.01669183373451233 -0.014142751693725586 0.11734883487224579 0.07963323593139648 -0.043392881751060486 -0.1017565131187439 0.10356095433235168 -0.07028868794441223 0.09590528905391693 -0.0766465812921524 -0.12357160449028015 0.05713894963264465 -0.07514108717441559 -0.04666265845298767 0.0051962584257125854 -0.04391244053840637 -0.11429677903652191 -0.08286604285240173 0.01704852283000946 -0.020560353994369507 0.07800725102424622 
-0.06815971434116364 0.09776793420314789 -0.11163084208965302 0.006913915276527405 0.08806726336479187 0.020178869366645813 0.025256022810935974 0.019750669598579407 -0.07269500195980072 0.01701393723487854 -0.04680424928665161 -0.003035321831703186 -0.07238627970218658 -0.1142546534538269 0.027072682976722717 -0.11504451930522919 -0.06897319853305817 0.04496128857135773 0.08584059774875641 0.07569025456905365 0.03418053686618805 0.09381312131881714 0.057090625166893005 -0.08947381377220154 -0.08399687707424164 -0.08581773936748505 0.00881284475326538 0.0997682511806488 0.040607988834381104 0.03896215558052063 0.10109704732894897 0.0794210284948349 
-0.1041177362203598 -0.054378390312194824 0.014466091990470886 0.1080598384141922 0.08940048515796661 -0.0975511372089386 -0.10972230136394501 0.02609829604625702 -0.00886864960193634 0.06515981256961823 -0.05713796615600586 -0.02442161738872528 -0.039302974939346313 -0.12309002876281738 0.019442424178123474 -0.10591007769107819 0.008793950080871582 -0.09231738746166229 0.03672716021537781 0.02365170419216156 0.10102185606956482 -0.04279075562953949 0.12326861917972565 -0.05620269477367401 -0.06384344398975372 0.07911887764930725 -0.04548637568950653 0.05806170403957367 0.11071896553039551 0.04109087586402893 -0.10378064215183258 0.10852307081222534 
0.08869010210037231 0.020173370838165283 -0.05949017405509949 -0.024995267391204834 0.0729510635137558 0.013991400599479675 -0.07588927447795868 -0.016276970505714417 -0.06351307034492493 0.017390161752700806 0.01567697525024414 0.043448761105537415 0.10874819755554199 -0.07092474400997162 0.1095413863658905 -0.044584766030311584 0.05758830904960632 0.08552627265453339 0.09135864675045013 -0.09471222758293152 -0.020522713661193848 -0.019373714923858643 -0.062427639961242676 -0.0672726184129715 0.07755719125270844 0.025777459144592285 0.05037987232208252 -0.07101321220397949 0.04021379351615906 0.044468700885772705 0.09758713841438293 -0.0437580943107605 
0.0021491795778274536 -0.10900983214378357 0.010791823267936707 0.06543770432472229 -0.006214797496795654 0.06027042865753174 0.061067551374435425 0.001215621829032898 -0.048368364572525024 -0.052798882126808167 -0.11297014355659485 -0.06884859502315521 0.001434221863746643 -0.04287491738796234 0.0018942803144454956 -0.11338022351264954 0.04241052269935608 0.11778350174427032 -0.02639824151992798 -0.11271971464157104 -0.011736556887626648 -0.012046679854393005 0.09283646941184998 -0.013896062970161438 -0.12119211256504059 0.10466982424259186 -0.0725945234298706 -0.03539246320724487 0.042692556977272034 -0.015587419271469116 0.04202212393283844 -0.05127817392349243 
0.07666757702827454 -0.0760936439037323 0.09095875918865204 0.09848003089427948 -0.10240595042705536 -0.12381108105182648 -0.03787583112716675 -0.0875917375087738 0.08462980389595032 0.02136997878551483 -0.06602969765663147 0.06347981095314026 0.02648620307445526 -0.01768326759338379 -0.03044375777244568 -0.008751347661018372 -0.06635792553424835 0.11733204126358032 0.042583122849464417 0.08250078558921814 -0.08762933313846588 0.07843106985092163 -0.021469339728355408 -0.10764241218566895 0.08854097127914429 0.05542241036891937 -0.06670346856117249 0.01058042049407959 -0.08738581836223602 0.018862232565879822 0.003521353006362915 -0.04668121039867401 
-0.10276749730110168 0.0802326649427414 -0.0998651385307312 -0.00046494603157043457 0.06885397434234619 0.07446599006652832 0.07103852927684784 -0.04329754412174225 0.10137997567653656 -0.11577589809894562 -0.11943858861923218 0.01855829358100891 -0.012367218732833862 -0.07169368863105774 0.08917891979217529 0.04185988008975983 0.02044634521007538 0.07159163057804108 0.12270735204219818 -0.03757525980472565 -0.11459426581859589 -0.012157142162322998 -0.07021689414978027 -0.03998604416847229 0.023102611303329468 -0.09169259667396545 -0.0900193303823471 -0.08816689252853394 -0.07652246952056885 -0.042795613408088684 -0.09197536110877991 0.02979499101638794 
-0.006321117281913757 0.009157195687294006 0.03388892114162445 -0.04500246047973633 0.05333349108695984 -0.07911194860935211 0.10550737380981445 0.00567983090877533 -0.09858551621437073 -0.03425721824169159 0.025948449969291687 0.07638254761695862 -0.11583511531352997 0.06596964597702026 -0.1010795533657074 -0.06344269216060638 0.12442700564861298 0.02794364094734192 0.10164390504360199 0.12386676669120789 0.09054520726203918 0.09382496774196625 0.06094570457935333 -0.0705101490020752 0.0440199077129364 -0.0645218938589096 -0.11372242867946625 -0.07551299035549164 0.053170233964920044 0.04300905764102936 -0.11315624415874481 -0.0217151939868927 
0.08527061343193054 -0.058665931224823 0.04624903202056885 0.025545984506607056 0.11167526245117188 -0.050710201263427734 0.008619219064712524 0.05062340199947357 0.10813285410404205 -0.03598611056804657 -0.10312099754810333 0.0551074743270874 0.07500077784061432 -0.039853811264038086 0.0945250391960144 0.02196359634399414 0.021640747785568237 -0.027599453926086426 -0.11970449984073639 -0.03274761140346527 0.10301309823989868 0.0403105765581131 -0.013765722513198853 -0.11477375030517578 0.021480455994606018 0.11606372892856598 0.03009606897830963 0.008645862340927124 0.03232544660568237 -0.04054133594036102 0.0925527960062027 0.029577046632766724 
0.03902994096279144 0.016743451356887817 -0.12370920181274414 -0.045023173093795776 -0.018701642751693726 0.013854056596755981 0.007196307182312012 0.08735419809818268 0.07534675300121307 -0.06617942452430725 0.09371504187583923 0.10777820646762848 -0.03869222104549408 -0.0976349413394928 -0.10745923221111298 0.09705841541290283 0.02368876338005066 0.12067623436450958 0.04642710089683533 -0.1027793139219284 -0.056218549609184265 -0.03664879500865936 0.08144240081310272 0.09081397950649261 -0.08907802402973175 0.1162414401769638 -0.05668245255947113 0.12022462487220764 0.017658039927482605 -0.017540529370307922 0.11378192901611328 -0.03769877552986145 
0.04861941933631897 0.06745067238807678 -0.11534465849399567 -0.023345082998275757 0.12094758450984955 -0.07125097513198853 0.0602395236492157 0.007995590567588806 -0.02166581153869629 -0.06785273551940918 0.022089406847953796 -0.09284119307994843 -0.004852712154388428 -0.00809362530708313 -0.11930285394191742 -0.08568477630615234 -0.08821268379688263 0.10371950268745422 0.02304302155971527 -0.06903165578842163 -0.03232814371585846 0.08760835230350494 0.12058024108409882 0.12241451442241669 0.000753551721572876 -0.05476921796798706 0.07208597660064697 -0.030508503317832947 0.06879808008670807 0.05224244296550751 0.08453622460365295 -0.1236201822757721 
-0.09228833019733429 -0.11497774720191956 0.0026444196701049805 0.017261385917663574 0.053416699171066284 0.06146562099456787 -0.018777087330818176 -0.0496944785118103 -0.11721928417682648 -0.12394934892654419 0.09039796888828278 0.04562018811702728 0.04345005750656128 -0.11489872634410858 -0.0749063789844513 -0.05030488967895508 -0.11698079109191895 -0.11840800940990448 -0.08424261212348938 0.11527152359485626 -0.03043481707572937 0.07932627201080322 -0.023317530751228333 0.03484334051609039 0.12159848213195801 0.11978073418140411 -0.11354655027389526 -0.027292907238006592 0.03191739320755005 0.09695175290107727 -0.05649520456790924 0.07007023692131042 
0.05638033151626587 -0.047103092074394226 -0.009314700961112976 -0.12020549178123474 -0.01634405553340912 -0.1031503677368164 -0.05366678535938263 -0.07690690457820892 -0.04698345065116882 0.11486996710300446 0.09068295359611511 -0.045465126633644104 -0.10822325944900513 -0.12426570057868958 0.09969145059585571 0.06355749070644379 0.10314808785915375 0.08654956519603729 -0.06905916333198547 -0.0797872394323349 -0.06950576603412628 0.11681462824344635 -0.09466664493083954 -0.08774693310260773 0.10792730748653412 -0.0850418359041214 -0.0875900387763977 -0.07806245982646942 0.10267074406147003 0.03188230097293854 0.07260593771934509 -0.03766840696334839 
0.10325586795806885 -0.04708711802959442 0.006090760231018066 0.01083393394947052 0.06271880865097046 -0.01599857211112976 -0.06405395269393921 -0.043619513511657715 -0.08889217674732208 -0.05624032020568848 -0.0691821277141571 -0.017452731728553772 -0.0889272689819336 0.11373330652713776 -0.0836143046617508 0.07118098437786102 -0.09322914481163025 -0.06444905698299408 0.009823262691497803 0.06655524671077728 -0.013869047164916992 0.027066484093666077 -0.014909982681274414 -0.07839716970920563 0.08829392492771149 -0.08087886869907379 -0.04960255324840546 0.007059663534164429 -0.015293732285499573 0.025033384561538696 0.09779877960681915 0.06308263540267944 
0.04478578269481659 -0.020140230655670166 -0.04562529921531677 -0.026001393795013428 -0.02916380763053894 0.020090937614440918 0.12185396254062653 -0.012123703956604004 0.004522800445556641 0.1121644675731659 0.0034392476081848145 -0.05035682022571564 -0.03297440707683563 0.1186785101890564 0.07368144392967224 -0.061645492911338806 0.037188783288002014 -0.12396296858787537 -0.07694049179553986 0.12435564398765564 -0.10787330567836761 -0.1067945808172226 -0.05523715913295746 0.1198396384716034 0.04727905988693237 -0.02954290807247162 0.04796957969665527 0.09916861355304718 0.10430930554866791 0.10571540892124176 0.04394185543060303 0.04895378649234772 
0.027440041303634644 0.03542204201221466 -0.0678374171257019 -0.11414717137813568 -0.01731337606906891 0.05806760489940643 -0.04661634564399719 0.0528486967086792 -0.03346550464630127 0.09490479528903961 -0.05668976902961731 0.09075623750686646 0.03198006749153137 0.04016582667827606 -0.00928381085395813 0.08580031991004944 0.017115339636802673 0.06766839325428009 0.09593251347541809 0.016211330890655518 -0.0852445513010025 -0.0911920815706253 0.00419403612613678 -0.07547266781330109 0.005510017275810242 0.048754483461380005 0.08574993908405304 0.042572200298309326 -0.013484522700309753 0.028892070055007935 -0.0032775402069091797 0.01518133282661438 
-0.11766302585601807 -0.021367833018302917 -0.07202786207199097 0.12315209209918976 0.12024982273578644 0.09498041868209839 -0.025543928146362305 0.04876178503036499 0.07001739740371704 -0.024901479482650757 0.015972986817359924 0.07311490178108215 0.10545472800731659 -0.010323971509933472 0.07813514769077301 -0.10992556810379028 -0.027507349848747253 -0.027306243777275085 0.00042173266410827637 0.05483469367027283 0.013017982244491577 -0.10680261254310608 0.024891451001167297 0.030288055539131165 0.10275314748287201 -0.0034384727478027344 0.0597103089094162 0.038770899176597595 -0.00339314341545105 0.12086054682731628 0.10649238526821136 0.09844677150249481 
0.10237747430801392 0.010834813117980957 -0.11508062481880188 0.06995470821857452 -0.11047263443470001 -0.0801813155412674 -0.12118776142597198 0.030115842819213867 0.10714559257030487 0.01710948348045349 -0.03665325045585632 -0.01954178512096405 0.04457774758338928 0.008180350065231323 0.09623488783836365 0.019771575927734375 0.06680548191070557 -0.015731081366539 0.03225882351398468 -0.01669400930404663 0.012313395738601685 -0.11380496621131897 0.061793386936187744 -0.09225001931190491 -0.055280640721321106 0.05252884328365326 -0.11754819750785828 0.02698427438735962 0.038952335715293884 0.06452292203903198 0.003460243344306946 0.0798557847738266 
0.047203242778778076 -0.11043380200862885 0.028727635741233826 -0.09280596673488617 -0.11602024734020233 0.006367430090904236 0.058170974254608154 -0.12453386187553406 -0.10285305976867676 -0.0123576819896698 0.11330193281173706 -0.05162955820560455 0.08961701393127441 -0.06022201478481293 0.10385365784168243 0.08925795555114746 -0.018674015998840332 0.10029362142086029 0.03865131735801697 -0.07470199465751648 0.017868459224700928 -0.12123534083366394 -0.0822371244430542 -0.019739285111427307 0.00985872745513916 -0.06370589137077332 -0.08741655945777893 0.02510799467563629 0.004465579986572266 0.10733889043331146 0.10453446209430695 -0.021048471331596375 
0.08157491683959961 0.035979077219963074 -0.10822340846061707 0.08001254498958588 0.0973106324672699 -0.08452825248241425 -0.012546449899673462 -0.021274641156196594 0.10669392347335815 0.07473966479301453 -0.0974736213684082 0.08306041359901428 -0.054404035210609436 -0.034796833992004395 0.028482139110565186 0.09155113995075226 -0.10588079690933228 0.008069202303886414 -0.07478690147399902 -0.010658934712409973 -0.035148054361343384 -0.06656493246555328 0.0882873684167862 0.0031371116638183594 -0.011385157704353333 -0.037574633955955505 0.004795774817466736 0.014772966504096985 0.11870263516902924 0.019598260521888733 0.08282233774662018 -0.025909647345542908 
-0.05691881477832794 0.10350601375102997 -0.03566308319568634 -0.030960381031036377 -0.03602616488933563 0.09030674397945404 0.03462305665016174 -0.03180670738220215 0.017464637756347656 -0.08003360033035278 0.05385655164718628 -0.12040174007415771 -0.12163005769252777 0.055026158690452576 -0.07763338088989258 0.07816234230995178 -0.06379459798336029 0.07029815018177032 -0.1079121083021164 0.08104301989078522 0.08282342553138733 -0.05257222056388855 0.03616619110107422 -0.07811291515827179 -0.10571840405464172 -0.0316474586725235 -0.05293700098991394 -0.07718810439109802 -0.08764179050922394 0.0031012296676635742 0.10029172897338867 0.11813050508499146 
-0.04833361506462097 0.05020152032375336 -0.11949370801448822 -0.09581878781318665 0.08744455873966217 0.019222959876060486 -0.0759425014257431 0.08479820191860199 0.018522143363952637 0.09498831629753113 -0.07219798862934113 0.10704191029071808 -0.08393751084804535 0.06608034670352936 -0.04542405903339386 0.08682344853878021 0.08840253949165344 -0.0004963725805282593 0.1149454265832901 0.010886326432228088 0.07631172239780426 0.020495250821113586 0.03994579613208771 -0.0670226663351059 -0.08730410039424896 -0.058525606989860535 -0.0947611927986145 -0.11491718888282776 0.11205555498600006 -0.02731168270111084 -0.08959399163722992 0.030581101775169373 
0.043793126940727234 0.07603628933429718 -0.03281833231449127 -0.09770986437797546 -0.051667824387550354 -0.006215095520019531 -0.09729413688182831 -0.0793430507183075 -0.047035232186317444 0.06493575870990753 0.10465957224369049 0.007529392838478088 -0.0750158429145813 -0.10090172290802002 -0.05197975039482117 -0.11500528454780579 -0.08141458034515381 0.09706546366214752 0.021813899278640747 -0.009074807167053223 0.09373626112937927 -0.04509931802749634 0.06612282991409302 -0.04643738269805908 -0.06854894757270813 0.03745169937610626 -0.0959949940443039 0.1012708991765976 0.027222275733947754 -0.003171861171722412 -0.013734325766563416 0.032869234681129456 
0.08524337410926819 0.016646072268486023 -0.026844710111618042 -0.06716683506965637 -0.11019366979598999 -0.05800844728946686 0.018716156482696533 -0.01158846914768219 0.049424827098846436 -0.03923045098781586 0.09811113774776459 -0.04118336737155914 0.022870108485221863 0.05260303616523743 -0.09460638463497162 0.07560946047306061 -0.015342384576797485 0.06074830889701843 -0.018146172165870667 0.06995266675949097 -0.09932981431484222 -0.06921945512294769 0.009339883923530579 0.10301847755908966 -0.052632689476013184 0.05872088670730591 0.06118755042552948 0.06173203885555267 -0.024057939648628235 0.05064085125923157 0.036809369921684265 0.049185335636138916 
-0.06426113843917847 -0.005341887474060059 -0.028363198041915894 -0.009550899267196655 0.07630248367786407 -0.10739387571811676 -0.08106136322021484 0.036603137850761414 0.01747693121433258 -0.10793961584568024 0.014525458216667175 -0.03421050310134888 0.05145260691642761 0.018270164728164673 0.1143747866153717 0.006323233246803284 0.09916773438453674 0.05562116205692291 -0.0044067054986953735 0.049799755215644836 -0.1040230542421341 0.11644153296947479 -0.11509007215499878 0.10974198579788208 -0.12467500567436218 0.05598130822181702 -0.030974403023719788 0.057870492339134216 0.059910476207733154 0.10266570746898651 -0.03852035105228424 -0.009023740887641907 
-0.06637054681777954 -0.001237824559211731 -0.05300712585449219 0.09897734224796295 0.059283480048179626 0.0388786643743515 0.08876879513263702 -0.0912119448184967 -0.084260955452919 0.001592978835105896 0.07966849207878113 -0.08094319701194763 0.12158778309822083 0.0341772735118866 -0.04507651925086975 -0.056881725788116455 -0.022173404693603516 0.09267349541187286 -0.007970601320266724 0.11743700504302979 -0.03864726424217224 -0.008147969841957092 -0.04639260470867157 -0.01948198676109314 0.034834250807762146 -0.03995890915393829 -0.09300290048122406 -0.02778446674346924 -0.023520946502685547 0.10832838714122772 0.12388443946838379 0.009483665227890015 
-0.005761772394180298 0.028646200895309448 -0.02969244122505188 -0.05838727951049805 -0.07454875111579895 0.05092838406562805 0.05660724639892578 -0.02434396743774414 -0.10330171883106232 -0.07299992442131042 0.06153880059719086 -0.0947413444519043 -0.10600420832633972 0.06466943025588989 0.03201599419116974 -0.082670196890831 -0.04822036623954773 -0.07267250120639801 0.0405147522687912 0.1079631894826889 0.03343823552131653 -0.03644217550754547 0.031197980046272278 0.12034876644611359 0.0012986958026885986 0.07443247735500336 -0.07826992869377136 -0.11229285597801208 -0.11899183690547943 -0.0020363926887512207 -0.09032458066940308 -0.03622329235076904 
0.010240286588668823 -0.013300791382789612 -0.0020743459463119507 0.05645883083343506 0.08936069905757904 0.06933535635471344 -0.06821545958518982 -0.017546653747558594 0.0038095712661743164 -0.05511528253555298 -0.03274792432785034 0.06597808003425598 -0.12409946322441101 -0.037151604890823364 -0.09806017577648163 -0.08617430925369263 -0.12172593176364899 -0.06463202834129333 -0.015072107315063477 0.034146323800086975 0.009866118431091309 -0.026093393564224243 0.10567896068096161 0.10328035056591034 0.06650762259960175 -0.07518765330314636 0.042544931173324585 0.009308546781539917 0.06723016500473022 -0.10189540684223175 0.09742826223373413 0.07279857993125916 
-0.07936570048332214 -0.02105255424976349 0.0180719792842865 0.02682371437549591 0.12028223276138306 -0.012278929352760315 -0.04204005002975464 -0.005541369318962097 -0.10329940915107727 -0.019668936729431152 -0.09415628015995026 0.03677353262901306 -0.10374948382377625 -0.027284368872642517 0.07018516957759857 0.1201469898223877 -0.0947318971157074 -0.002515658736228943 0.10627619922161102 -0.021032661199569702 0.0540022999048233 0.05031348764896393 0.037751391530036926 0.017987728118896484 0.09335830807685852 0.023918136954307556 -0.10675281286239624 0.05422866344451904 -0.07294601202011108 0.06875042617321014 -0.10895739495754242 -0.046996623277664185 
-0.1116744875907898 0.03809837996959686 -0.06532937288284302 -0.03141012787818909 0.06711991131305695 -0.05534979701042175 -0.05831155180931091 -0.04589730501174927 -0.046937569975852966 0.05553998053073883 0.07141803205013275 0.09257994592189789 -0.017672091722488403 -0.05257891118526459 -0.05142451822757721 0.07299023866653442 -0.11745214462280273 -0.06243240833282471 -0.019324198365211487 -0.02495473623275757 0.1214272677898407 0.09992648661136627 -0.06505952775478363 -0.03038860857486725 0.0981668084859848 -0.04012066125869751 0.056045159697532654 -0.032124102115631104 -0.06902065873146057 0.05543819069862366 0.0768902599811554 0.026622861623764038 
-0.07923911511898041 -0.013513028621673584 -0.07858243584632874 0.051124751567840576 -0.040239959955215454 0.10518182814121246 -0.09145069122314453 -0.09918156266212463 0.10484302043914795 -0.07320638000965118 0.11917528510093689 0.02565440535545349 0.0420030802488327 0.08371250331401825 -0.05815771222114563 0.004664108157157898 -0.03850880265235901 0.07143129408359528 -0.08896155655384064 -0.07943467795848846 -0.12480293214321136 -0.07677732408046722 0.10691720247268677 -0.01972915232181549 -0.06345060467720032 0.08921578526496887 -0.09634794294834137 0.026081979274749756 0.10083037614822388 -0.031866446137428284 0.05389079451560974 0.023932844400405884 
0.0056221336126327515 0.01111745834350586 0.1119961142539978 0.009672179818153381 -0.012414753437042236 0.034894928336143494 -0.08945615589618683 -0.04157285392284393 0.011254236102104187 -0.09099322557449341 -0.08311320841312408 0.11547525227069855 -0.0457511842250824 0.02521410584449768 0.021657124161720276 -0.059329286217689514 -0.12498599290847778 0.08769352734088898 0.07318370044231415 -0.06586198508739471 0.033303990960121155 -0.013636678457260132 -0.035858362913131714 0.11465787887573242 -0.0022612065076828003 -0.029631391167640686 -0.11676429212093353 0.08659727871417999 -0.03897276520729065 -0.06343357264995575 0.0661577582359314 0.06520192325115204 
-0.045967236161231995 -0.12478789687156677 0.007450073957443237 0.11415225267410278 -0.11087223887443542 0.03891310095787048 -0.03841705620288849 -0.007310390472412109 0.0702352523803711 -0.09176447987556458 -0.0626569390296936 -0.07977408170700073 0.03400576114654541 -0.09513314068317413 0.03525237739086151 -0.04349753260612488 0.03425946831703186 0.10009661316871643 -0.03311535716056824 -0.039611637592315674 -0.009366527199745178 -0.09904292225837708 0.10381031036376953 0.091594398021698 0.038883939385414124 -0.05229654908180237 0.08478212356567383 -0.05244454741477966 -0.10641211271286011 0.10031941533088684 0.004416599869728088 -0.1215994656085968 
-0.07231512665748596 0.1117238849401474 0.11807839572429657 -0.11044847965240479 -0.09554517269134521 0.045037612318992615 0.02268385887145996 -0.08344006538391113 0.02138429880142212 -0.014895379543304443 0.050341203808784485 0.04443471133708954 -0.09821105003356934 -0.0112399160861969 0.04187299311161041 0.0006057769060134888 -0.06983058154582977 0.10369634628295898 -0.11921036243438721 0.03918309509754181 -0.02114662528038025 -0.11639827489852905 0.12109078466892242 0.028215214610099792 0.12337473034858704 -0.015917658805847168 0.030911684036254883 -0.0850486010313034 -0.017458051443099976 -0.10404801368713379 0.009352639317512512 -0.08857154846191406 
0.11967436969280243 0.12472450733184814 -0.11256688833236694 -0.12120763957500458 0.030604243278503418 0.04044836759567261 0.11893495917320251 -0.03437045216560364 0.009656339883804321 0.10071718692779541 -0.053141191601753235 -0.12164890766143799 -0.0003112703561782837 -0.004604935646057129 -0.11963194608688354 0.03696669638156891 -0.11757764220237732 -0.07442116737365723 0.11321960389614105 -0.01843319833278656 0.07587040960788727 0.006469935178756714 -0.015205442905426025 -0.020841524004936218 0.05002298951148987 0.0166596919298172 0.08375236392021179 -0.03218717873096466 0.09758181869983673 0.011174038052558899 -0.07891885936260223 0.10441428422927856 
-0.0017365813255310059 0.050557270646095276 -0.10478614270687103 -0.02009420096874237 0.04623681306838989 -0.09181414544582367 0.06125158071517944 -0.12448333203792572 -0.0892844945192337 0.04613494873046875 0.05264544486999512 0.11164309084415436 -0.05024045705795288 -0.06532071530818939 0.053576186299324036 0.10019753873348236 0.042721837759017944 0.028433889150619507 0.04184065759181976 0.07890689373016357 -0.02004513144493103 0.011044085025787354 0.12082734704017639 -0.030467674136161804 0.050501689314842224 0.02248936891555786 0.09175750613212585 0.09684574604034424 0.06384217739105225 0.01596476137638092 0.015641406178474426 -0.09669500589370728 
-0.026572391390800476 0.007416293025016785 0.11495426297187805 0.025575503706932068 -0.0027595162391662598 0.08187535405158997 -0.04334205389022827 -0.09729544818401337 0.09552280604839325 0.05503726005554199 -0.06611651182174683 0.11501626670360565 -0.06885243952274323 -0.07634232938289642 -0.10960149765014648 -0.11913083493709564 -0.09984154999256134 -0.1015271544456482 0.0392317920923233 -0.09422115981578827 -0.07719799876213074 -0.0009699463844299316 0.05807715654373169 0.033689066767692566 -0.10966962575912476 -0.02214270830154419 0.07664494216442108 -0.03780476748943329 -0.1040201336145401 0.03253331780433655 -0.07729750871658325 -0.023589208722114563 
0.08832065761089325 -0.04936753213405609 0.02007681131362915 0.06418967247009277 0.11585316061973572 -0.005261853337287903 -0.032939791679382324 0.03934171795845032 -0.11099016666412354 0.016033589839935303 0.011053785681724548 -0.07370097935199738 0.00663641095161438 0.023190170526504517 -0.07487986981868744 -0.0035378485918045044 0.0667913407087326 0.05865229666233063 0.008612245321273804 0.037566423416137695 -0.04398465156555176 -0.03267616033554077 0.1133485734462738 0.004054084420204163 -0.05013135075569153 -0.04782116413116455 0.10339835286140442 0.11887171864509583 0.03003630042076111 0.11484275758266449 0.11143818497657776 -0.027403801679611206 
-0.03558705747127533 0.06537747383117676 -0.006383031606674194 -0.10593007504940033 -0.058383628726005554 -0.08241240680217743 -0.04442237317562103 -0.06322503089904785 0.05268336832523346 -0.09131430089473724 0.10579948127269745 -0.05275362730026245 -0.11754253506660461 -0.01728600263595581 -0.03528738021850586 0.09881636500358582 -0.07201236486434937 -0.09970583021640778 -0.11360445618629456 0.061208441853523254 -0.007794514298439026 -0.07284779846668243 0.06945657730102539 0.05464297533035278 -0.054157599806785583 -0.10771508514881134 -0.0074889808893203735 -0.0235443115234375 -0.03220304846763611 -0.11405885219573975 -0.1228877604007721 0.11452794075012207 
-0.005622178316116333 -0.015384212136268616 -0.11830024421215057 0.07242047786712646 -0.009983763098716736 0.10225927829742432 0.11020857095718384 -0.05468364059925079 0.05370289087295532 0.10568885505199432 -0.049151092767715454 0.11864185333251953 0.06035970151424408 -0.10484872758388519 0.10757322609424591 0.03511720895767212 -0.06842125952243805 -0.013734892010688782 -0.07293616235256195 -0.05430932343006134 -0.034553155303001404 -0.028388410806655884 0.035848990082740784 0.12398441135883331 0.0634150356054306 0.08945055305957794 -0.025582388043403625 0.11575132608413696 0.10458032786846161 0.09466032683849335 0.03542889654636383 -0.0007403790950775146 
-0.01593610644340515 0.04458516836166382 0.0026367902755737305 0.052878931164741516 -0.013099148869514465 0.03712272644042969 -0.050804972648620605 0.058789581060409546 -0.12380722165107727 0.005832120776176453 -0.08681370317935944 -0.0955500602722168 0.054843127727508545 -0.03485603630542755 -0.018117859959602356 0.007408022880554199 0.10630899667739868 -0.010926991701126099 0.013297811150550842 -0.11896948516368866 -0.05110163986682892 0.07447086274623871 -0.09015822410583496 0.06233133375644684 -0.010707855224609375 0.08380767703056335 0.041995689272880554 0.0028600692749023438 -0.1097044050693512 0.08605867624282837 0.10087212920188904 -0.02229824662208557 
-0.1010645180940628 0.1199001669883728 -0.0716320127248764 -0.06988221406936646 -0.06719255447387695 -0.1219683438539505 0.010533705353736877 0.06506547331809998 -0.02378535270690918 0.03596004843711853 0.008403360843658447 0.037608012557029724 0.011354595422744751 -0.04521101713180542 0.11821010708808899 0.0007697343826293945 0.10806073248386383 -0.1159832626581192 -0.08678269386291504 -0.007296144962310791 0.0933184027671814 0.05768163502216339 0.047266244888305664 0.007749870419502258 0.1247464269399643 0.04824402928352356 0.04481956362724304 -0.06631086766719818 0.11694622039794922 0.04818926751613617 -0.10648851096630096 0.002600163221359253 
0.10344873368740082 -0.017154529690742493 0.029839038848876953 0.053600773215293884 -0.11683215200901031 0.11842449009418488 -0.046998098492622375 0.10480073094367981 0.0039153993129730225 -0.10320077836513519 -0.03573086857795715 0.06381678581237793 -0.11871746182441711 0.024480462074279785 -0.06990349292755127 -0.06992986798286438 -0.09267197549343109 0.08113017678260803 -0.10463011264801025 -0.09748488664627075 -0.09881140291690826 -0.08069774508476257 0.08864225447177887 -0.08378706872463226 -0.10742029547691345 0.11956727504730225 0.07449345290660858 0.1029084324836731 0.08104023337364197 0.07753722369670868 -0.050826117396354675 0.06876575946807861 
-0.0049069225788116455 -0.0010443925857543945 -0.05432744324207306 -0.011725753545761108 -0.11532950401306152 0.06625460088253021 0.010185733437538147 0.12307415902614594 -0.0712285190820694 0.08530053496360779 -0.01443229615688324 -0.0609249621629715 -0.054704055190086365 0.025787487626075745 -0.031853243708610535 -0.01853322982788086 -0.07219691574573517 -0.04132348299026489 0.05585896968841553 -0.06893205642700195 0.11937296390533447 0.03826688230037689 -0.0698971152305603 -0.029964372515678406 -0.1000528484582901 -0.10959802567958832 -0.001711234450340271 0.10915368795394897 -0.08214680850505829 0.04519149661064148 -0.10258059203624725 -0.06416068971157074 
-0.047001808881759644 -0.006553038954734802 0.030536428093910217 -0.07454998791217804 -0.01112397015094757 0.018572673201560974 0.03345821797847748 0.012800276279449463 0.0371357798576355 0.090357705950737 -0.012314096093177795 0.07928305864334106 -0.06383052468299866 -0.07664123177528381 0.04720793664455414 0.09715977311134338 -0.05008271336555481 0.07115432620048523 -0.006962671875953674 0.008909136056900024 -0.09808586537837982 -0.04765334725379944 0.08160299062728882 -0.09102369844913483 -0.02354295551776886 0.008259937167167664 0.03898964822292328 0.0013142228126525879 -0.025181323289871216 -0.054701268672943115 -0.07175922393798828 0.027708113193511963 
-0.011649951338768005 -0.051207318902015686 -0.10775114595890045 0.019795715808868408 0.11089193820953369 0.04856368899345398 0.12215253710746765 0.09003804624080658 -0.06739477813243866 0.027604416012763977 -0.07222594320774078 -0.02394711971282959 -0.06299686431884766 -0.09664550423622131 0.08104673027992249 0.045054420828819275 -0.004423052072525024 -0.04071630537509918 -0.060745835304260254 -0.003042563796043396 -0.006101980805397034 0.007078289985656738 -0.061965346336364746 0.0502755343914032 0.1169937402009964 -0.02599652111530304 -0.03529222309589386 0.01745159924030304 -0.00581282377243042 -0.07756176590919495 0.05510401725769043 0.1052793562412262 
0.00018544495105743408 0.10107113420963287 0.043423861265182495 0.06858645379543304 -0.057486891746520996 -0.05816930532455444 0.060483574867248535 -0.043843626976013184 0.11656889319419861 -0.10851821303367615 -0.008227750658988953 0.04248994588851929 0.03654022514820099 0.06840857863426208 -0.00959603488445282 0.028106585144996643 -0.1092672199010849 -0.09509111940860748 -0.12378314137458801 0.10248300433158875 -0.031911998987197876 -0.055768221616744995 0.10138031840324402 -0.06338758766651154 -0.08213472366333008 0.004453599452972412 0.03997926414012909 0.1133885383605957 0.04188673198223114 -0.06151220202445984 -0.07627615332603455 0.09825155138969421 
0.0764632374048233 -0.03637292981147766 -0.01593756675720215 0.011387869715690613 0.06489752233028412 0.12310494482517242 -0.08869282901287079 0.05645586550235748 0.09474010765552521 0.0285150408744812 -0.04189842939376831 -0.060244932770729065 0.06796304881572723 -0.05725947022438049 -0.058316975831985474 0.017162412405014038 -0.06232573091983795 0.07207021117210388 -0.039943382143974304 0.0021243393421173096 0.11415097117424011 0.005192488431930542 -0.04741807281970978 0.07896378636360168 -0.005152091383934021 -0.08255241811275482 0.11982764303684235 0.07915307581424713 -0.12423798441886902 -0.02013792097568512 -0.014250203967094421 -0.10439592599868774 
0.05666127800941467 -0.08849437534809113 -0.03693476319313049 -0.02450217306613922 -0.12025615572929382 -0.1155247837305069 -0.07522648572921753 -0.05003003776073456 -0.05116140842437744 0.007080644369125366 0.09002047777175903 0.09838713705539703 -0.1051425188779831 -0.030965447425842285 -0.12060563266277313 -0.003868609666824341 -0.08989076316356659 0.02136877179145813 -0.012988761067390442 0.01883654296398163 -0.06433402001857758 -0.018680870532989502 -0.10820019245147705 0.09265030920505524 -0.0004452019929885864 0.07830983400344849 0.02575439214706421 -0.07721392810344696 0.11425849795341492 -0.08871784806251526 0.08550359308719635 0.0345451682806015 
-0.04472677409648895 0.11027891933917999 0.009889915585517883 -0.04430301487445831 0.01191498339176178 -0.007427185773849487 0.09475754201412201 -0.052697211503982544 -0.01236097514629364 0.11970315873622894 -0.11546404659748077 0.12485441565513611 0.08276492357254028 0.015416666865348816 -0.02116277813911438 -0.07327288389205933 -0.07236675918102264 0.026195108890533447 0.0003523826599121094 -0.08672380447387695 -0.10090215504169464 -0.033994197845458984 -0.05090995132923126 0.025370284914970398 0.10278382897377014 -0.03287239372730255 -0.022426724433898926 -0.06441418826580048 0.06229051947593689 -0.11751696467399597 -0.03398782014846802 0.12207049131393433 
0.055085211992263794 -0.10593514144420624 -0.07848674058914185 -0.09643717110157013 0.12339223921298981 -0.09421055018901825 -0.05716066062450409 0.0614476352930069 -0.08373376727104187 -0.044306427240371704 0.10724829137325287 -0.12452307343482971 0.11770212650299072 0.008065372705459595 -0.12139816582202911 0.05435578525066376 -0.08380812406539917 -0.026464655995368958 -0.03894129395484924 0.116421177983284 0.11356517672538757 -0.03334224224090576 0.007600754499435425 0.018187403678894043 -0.006205201148986816 -0.022178977727890015 0.038767874240875244 -0.004599094390869141 0.0366104394197464 -0.08313973248004913 -0.012935861945152283 0.0864139050245285 
0.05941970646381378 -0.113454669713974 -0.10179588198661804 0.009911373257637024 -0.10382682085037231 0.07736438512802124 -0.04908667504787445 -0.06234002113342285 0.045564234256744385 -0.10890522599220276 -0.059423595666885376 -0.09163360297679901 -0.020952627062797546 -0.0482223778963089 0.08310684561729431 -0.0946667343378067 -0.023826077580451965 0.10926587879657745 -0.07731388509273529 0.10803544521331787 0.050424203276634216 0.0811753123998642 0.04209262132644653 -0.06443628668785095 0.0016798526048660278 -0.04227319359779358 0.006691858172416687 -0.016016647219657898 0.0243789404630661 0.030212387442588806 -0.11242666840553284 0.00686413049697876 
-0.006764620542526245 0.12366563081741333 0.08228734135627747 0.029697686433792114 -0.08592867851257324 0.0384819358587265 -0.019962668418884277 0.07664981484413147 -0.033505141735076904 -0.02469155192375183 -0.04820246994495392 0.034834250807762146 0.01744084060192108 0.07464286684989929 0.05614560842514038 -0.0267946720123291 0.1085643470287323 -0.007317498326301575 -0.09614346921443939 0.12084606289863586 0.07873871922492981 0.0642605870962143 -0.07007735967636108 -0.04830522835254669 -0.0003635287284851074 -0.10727839171886444 -0.0662337988615036 -0.022793635725975037 -0.0700344443321228 0.08225470781326294 -0.03546881675720215 -0.018265947699546814 
0.02611374855041504 0.11151158809661865 -0.1152360737323761 -0.023514479398727417 0.09714239835739136 0.037581413984298706 0.003521054983139038 0.08159300684928894 -0.06979812681674957 0.07327347993850708 -0.08420118689537048 -0.0503096729516983 -0.003364071249961853 -0.11254610121250153 0.07314883172512054 -0.08553092181682587 0.03664107620716095 0.06366564333438873 0.11955578625202179 -0.05385527014732361 0.07812632620334625 0.08283108472824097 0.10243256390094757 0.05589616298675537 -0.08868934214115143 0.061762914061546326 0.10209439694881439 0.09276051819324493 0.013534113764762878 0.09591889381408691 0.002131626009941101 0.07068188488483429 
-0.06264831125736237 -0.09857933223247528 -0.018037602305412292 0.08982959389686584 0.1022288054227829 0.0875183492898941 0.024936720728874207 -0.11283835768699646 0.07124680280685425 0.023855209350585938 0.09825004637241364 0.08084531128406525 -0.030006423592567444 -0.08538548648357391 -0.02450595796108246 -0.0570605993270874 -0.016047194600105286 -0.11188767850399017 -0.11945679783821106 0.08188918232917786 0.12404897809028625 0.11379149556159973 -0.10544449090957642 0.07893756031990051 -0.007202014327049255 -0.12418155372142792 0.10508204996585846 0.06114479899406433 -0.0886622816324234 -0.02551989257335663 0.041272684931755066 -0.0577075332403183 
0.0015343725681304932 -0.08150093257427216 -0.11338350176811218 -0.07580718398094177 0.10150589048862457 -0.09760905802249908 -0.09211133420467377 0.11224091053009033 -0.11588054895401001 0.024755239486694336 -0.029121100902557373 0.03514152765274048 0.08229774236679077 -0.05774439871311188 -0.04561881721019745 0.10822759568691254 0.025705799460411072 -0.11114199459552765 -0.07001245021820068 -0.04756905138492584 0.1139465868473053 0.05020970106124878 0.08040933310985565 0.04068659245967865 -0.09405094385147095 0.03672081232070923 0.004081234335899353 0.08385135233402252 -0.06823301315307617 -0.021418258547782898 0.0006064772605895996 -0.030641213059425354 
-0.042129114270210266 0.08270315825939178 -0.05452023446559906 0.06355741620063782 0.048500239849090576 0.06828443706035614 -0.015854597091674805 0.0004111677408218384 -0.0727425068616867 -0.0870860368013382 -0.04390577971935272 -0.08826953172683716 -0.10444794595241547 0.03932589292526245 0.030298233032226562 0.06257900595664978 0.08613485097885132 -0.11738470196723938 -0.020848050713539124 0.0009455233812332153 -0.0327458381652832 -0.10092316567897797 0.014503136277198792 -0.022679448127746582 -0.03422322869300842 0.09278209507465363 0.05729985237121582 -0.048734113574028015 0.07551191747188568 -0.1088816374540329 -0.0052551329135894775 -0.01907782256603241 
-0.029873371124267578 0.09904754161834717 0.12121732532978058 -0.0030550360679626465 0.11857713758945465 0.11608968675136566 0.00503578782081604 -0.10995027422904968 -0.004914924502372742 -0.08545884490013123 -0.08375433087348938 -0.005869612097740173 0.06876784563064575 0.0005400627851486206 -0.08019182085990906 -0.03154577314853668 -0.040622055530548096 0.060885339975357056 0.08397863805294037 0.04439064860343933 -0.004219710826873779 -0.0077302902936935425 -0.07713127136230469 -0.010839566588401794 -0.0861157774925232 0.025978177785873413 0.049518778920173645 0.021545350551605225 0.0674683004617691 -0.08664372563362122 0.11548733711242676 -0.009143531322479248 
-0.07985995709896088 -0.010506421327590942 0.05262824892997742 0.12431582808494568 0.10378667712211609 -0.05624702572822571 -0.089559406042099 0.004939869046211243 0.010700061917304993 0.09000395238399506 -0.009956181049346924 0.10943402349948883 -0.08634993433952332 0.08265118300914764 -0.0076017677783966064 0.03242722153663635 0.0818265825510025 0.07332241535186768 0.12387149035930634 -0.05149592459201813 0.09163685142993927 0.09364582598209381 0.05434201657772064 0.09353305399417877 -0.03011646866798401 -0.0173833966255188 0.1218486875295639 0.09582199156284332 0.07547438144683838 0.10281220078468323 0.08646142482757568 -0.018768250942230225 
-0.05447177588939667 0.06327128410339355 -0.08824107050895691 -0.12242430448532104 -0.013552159070968628 -0.012639984488487244 0.09238909184932709 0.02021646499633789 -0.04040573537349701 -0.10131275653839111 -0.027214989066123962 0.010291263461112976 0.11431579291820526 0.10879692435264587 0.11276262998580933 -0.07817815244197845 0.008631393313407898 -0.013155773282051086 -0.01768539845943451 -0.08208636939525604 -7.736682891845703e-05 0.09964115917682648 0.12256468832492828 0.10819032788276672 0.12199953198432922 -0.006136804819107056 0.03627876937389374 -0.08290837705135345 0.07445505261421204 0.06921632587909698 -0.015757858753204346 0.12391288578510284 
0.07016652822494507 0.053102463483810425 -0.07360111176967621 0.05137966573238373 -0.041404739022254944 0.07787942886352539 -0.05019563436508179 -0.0887908786535263 0.07039576768875122 0.11952716112136841 -0.04111586511135101 -0.00707794725894928 0.055242642760276794 -0.10430788993835449 -0.06314106285572052 0.05882188677787781 0.027476534247398376 -0.0836983323097229 0.11238372325897217 -0.01507556438446045 -0.04611283540725708 0.07801681756973267 -0.08659695088863373 0.0696190744638443 -0.09158708155155182 -0.06468573212623596 0.025084272027015686 -0.09973850846290588 0.11137516796588898 0.016884610056877136 0.10491038858890533 0.07705444097518921 
-0.015250861644744873 -0.034285202622413635 -0.02615700662136078 0.06373435258865356 -0.10463538765907288 0.0025994032621383667 -0.11469589173793793 -0.0018567442893981934 0.030616596341133118 0.09474244713783264 -0.07461753487586975 0.10736194252967834 0.002550855278968811 0.07054434716701508 -0.05851529538631439 0.039368972182273865 -0.0009391307830810547 -0.04970933496952057 0.017981261014938354 0.023763611912727356 -0.0706033855676651 -0.050304487347602844 -0.01768876612186432 -0.04592388868331909 0.06562042236328125 0.071186363697052 0.023875847458839417 0.11808077991008759 -0.07445365190505981 0.03717359900474548 -0.096758171916008 -0.10524582862854004 
-0.006517857313156128 -0.010778546333312988 0.12031310796737671 -0.036270707845687866 -0.0010174363851547241 -0.08633793890476227 0.09669849276542664 0.060131460428237915 0.06788522005081177 0.10390141606330872 -0.07740026712417603 -0.053787365555763245 0.005559027194976807 0.08001089096069336 -0.1081613302230835 0.115998774766922 0.021203860640525818 -0.019797340035438538 -0.044182419776916504 0.11230415105819702 0.02000415325164795 -0.01618964970111847 -0.047303274273872375 0.06935694813728333 -0.058189988136291504 0.06547635793685913 0.00546012818813324 -0.061386123299598694 0.11015968024730682 -0.10054080188274384 0.07904089987277985 0.026041075587272644 
-0.03899821639060974 0.022606119513511658 0.01880989968776703 -0.08386881649494171 -0.06437772512435913 0.009706735610961914 -0.0057481080293655396 -0.10819171369075775 -0.1182294636964798 0.08151520788669586 0.039341479539871216 -0.06555269658565521 0.11076620221138 0.025000721216201782 0.08560694754123688 -0.0988665223121643 -0.06775429844856262 -0.09053927659988403 -0.08837749063968658 -0.00949801504611969 -0.12306465208530426 0.04799520969390869 -0.07616981863975525 0.08574339747428894 0.06748692691326141 -0.12086142599582672 -0.10037416219711304 0.08145497739315033 -0.03353746235370636 -0.055762261152267456 0.1022239625453949 -0.09755030274391174 
-0.09502705931663513 -0.07733583450317383 0.09945432841777802 -0.029435694217681885 -0.027933448553085327 -0.09833906590938568 0.11587318778038025 -0.005363374948501587 -0.06379058957099915 -0.04009263217449188 -0.1024739146232605 0.10195833444595337 -0.07785770297050476 0.07280680537223816 0.0007763504981994629 0.09662120044231415 0.09057280421257019 -0.07539300620555878 -0.054868459701538086 -0.011142447590827942 0.004065454006195068 -0.036467522382736206 -0.05368354916572571 0.06218923628330231 0.07096070051193237 -0.12208211421966553 0.07438957691192627 0.032243385910987854 -0.01462090015411377 0.0644536167383194 0.06987106800079346 -0.00799211859703064 
-0.17661266028881073 -0.0010694414377212524 -0.035321563482284546 
0.17090089619159698 0.14982740581035614 -0.05124242603778839 
0.09560392796993256 0.09518904983997345 -0.0565011128783226 
-0.0009095966815948486 0.05205509066581726 -0.04721611738204956 
-0.14771896600723267 -0.0383133739233017 0.1490618735551834 
-0.17105895280838013 -0.14394637942314148 0.051359668374061584 
-0.129435732960701 0.08329685032367706 0.054785847663879395 
0.1251254826784134 0.12007386982440948 -0.02572321891784668 
-0.1447926163673401 -0.036107808351516724 0.032215118408203125 
-0.08789847046136856 0.05355022847652435 -0.09746452420949936 
0.0613977313041687 0.08328215777873993 0.1345696896314621 
0.1435268074274063 0.0005573481321334839 0.08093805611133575 
0.12393136322498322 0.10450182855129242 -0.07578462362289429 
-0.09854818135499954 0.1353379637002945 0.1453620344400406 
-0.17504814267158508 0.1486121565103531 0.10712935030460358 
0.15345598757266998 -0.02932789921760559 0.015000566840171814 
-0.05470673739910126 -0.0270727276802063 0.03169223666191101 
0.13544116914272308 0.03991144895553589 -0.12634840607643127 
-0.13900795578956604 -0.022489026188850403 0.017243921756744385 
0.07725735008716583 -0.14142179489135742 -0.0969163179397583 
-0.06599599868059158 -0.030343711376190186 -0.14214617013931274 
-0.12130624055862427 -0.03706689178943634 -0.008984670042991638 
-0.10346381366252899 0.0326756089925766 0.07545165717601776 
-0.05797155946493149 0.11796225607395172 -0.11711098253726959 
0.07754378020763397 0.03998735547065735 -0.055391982197761536 
-0.15326017141342163 -0.13712911307811737 -0.006096333265304565 
0.09060458838939667 0.15154306590557098 0.006925851106643677 
-0.10711865872144699 -0.040082111954689026 0.024050801992416382 
0.1470194309949875 -0.12301284074783325 0.1617581695318222 
0.04793468117713928 -0.024760857224464417 0.12389574944972992 
0.17354051768779755 -0.08224555104970932 0.08980752527713776 
0.17659233510494232 -0.15871182084083557 -0.0523763969540596 
-0.1479913294315338 -0.14696770906448364 -0.12848679721355438 
