-0.07724758982658386 0.195432648062706 -0.06865236163139343 0.16396836936473846 0.16741226613521576 0.10221146047115326 -0.08908556401729584 -0.0389072448015213 -0.10302266478538513 0.20016907155513763 0.08829639852046967 -0.10321512818336487 0.1313476711511612 -0.2221907377243042 0.16275377571582794 -0.15710709989070892 0.18103350698947906 -0.15634238719940186 -0.1169169619679451 0.07356296479701996 -0.13289770483970642 -0.06844943761825562 0.029417231678962708 0.04156897962093353 0.14754219353199005 -0.018863916397094727 -0.09172581136226654 0.11788590252399445 0.056642934679985046 0.058700546622276306 0.1906309872865677 -0.22234216332435608 0.09106318652629852 0.1420253962278366 0.20223994553089142 0.21720580756664276 -0.18212690949440002 -0.1435336470603943 -0.005277067422866821 0.06321705877780914 -0.0061783939599990845 -0.14980965852737427 -0.09845933318138123 -0.21629849076271057 0.05483768880367279 -0.0377478152513504 -0.15007607638835907 -0.015070781111717224 0.17713741958141327 0.09877355396747589 -0.16360080242156982 0.22005940973758698 0.12895353138446808 0.14741851389408112 -0.22500485181808472 -0.024463996291160583 -0.03951078653335571 -0.02962993085384369 -0.15917080640792847 0.11052103340625763 0.08206023275852203 -0.13103270530700684 0.06362827122211456 0.12029863893985748 
0.21751408278942108 -0.06858469545841217 -0.10582269728183746 -0.05597662925720215 -0.18255837261676788 0.044235989451408386 -0.05436597764492035 0.008189216256141663 0.14765362441539764 -0.10966362059116364 -0.1959993988275528 0.016569361090660095 0.06380318105220795 -0.2322477400302887 -0.0901138186454773 0.14689873158931732 -0.03773537278175354 -0.16364696621894836 0.007124707102775574 0.22878701984882355 -0.11705876886844635 -0.1417253315448761 0.06299348175525665 0.0355558842420578 0.038301870226860046 -0.10633307695388794 -0.040038689970970154 0.18598856031894684 0.08579669892787933 0.011518090963363647 0.061994150280952454 0.09717901051044464 -0.12452384829521179 -0.18838989734649658 -0.07952354848384857 -0.18892058730125427 -0.12061697244644165 -0.1879006028175354 0.06640352308750153 -0.055855587124824524 0.11322872340679169 0.0971820205450058 -0.13244009017944336 -0.13214562833309174 -0.02224859595298767 -0.16704386472702026 -0.07973602414131165 0.22616232931613922 0.1505214124917984 -0.08256305754184723 0.02629469335079193 -0.21149957180023193 0.06318952143192291 -0.08853496611118317 0.19851775467395782 0.023564472794532776 -0.17371422052383423 0.06513102352619171 0.08911632001399994 0.11734385788440704 -0.17325693368911743 0.03397740423679352 -0.2148536741733551 0.21204181015491486 
-0.07959075272083282 -0.1676749736070633 0.08719553053379059 -0.09245675802230835 0.012833178043365479 -0.0031055212020874023 0.04685424268245697 0.001040130853652954 0.15523023903369904 -0.09010928869247437 -0.08926887810230255 -0.01948361098766327 -0.1812148094177246 -0.04108135402202606 0.12878267467021942 0.09302787482738495 -0.12371952086687088 0.066663458943367 0.1553608626127243 -0.06420718133449554 0.185018852353096 -0.02759067714214325 0.1840248852968216 0.08454091846942902 -0.06755895912647247 0.02399332821369171 0.0235128253698349 0.12695567309856415 0.19511549174785614 -0.15294945240020752 0.06677736341953278 0.21404831111431122 0.07206831872463226 0.08841772377490997 -0.17616593837738037 0.0950206071138382 -0.10174915194511414 0.1999961882829666 0.02877335250377655 -0.06191346049308777 0.011079877614974976 0.029283776879310608 -0.12203892320394516 -0.12596988677978516 -0.14958390593528748 -0.007671564817428589 -0.1543441116809845 0.2327279895544052 0.03802095353603363 0.09561346471309662 -0.2142093926668167 -0.09533248841762543 0.19706101715564728 -0.024846524000167847 0.16010387241840363 -0.16912083327770233 -0.10670267045497894 -0.15285897254943848 0.12086509168148041 0.08460895717144012 -0.0018650591373443604 0.2234191745519638 -0.06488420069217682 0.06687210500240326 
-0.12090674787759781 -0.21579571068286896 0.0727507621049881 0.06919600069522858 -0.039246588945388794 -0.09851910173892975 -0.19955934584140778 0.1635495275259018 0.17345120012760162 0.06343688070774078 -0.21150816977024078 -0.22680489718914032 0.07784517109394073 0.04579995572566986 -0.033200591802597046 0.21546082198619843 0.14748932421207428 0.10475443303585052 -0.10006940364837646 -0.11076801270246506 -0.08151984214782715 0.13661949336528778 -0.05075310170650482 -0.0011578798294067383 -0.12159382551908493 -0.06680770218372345 0.14599032700061798 0.059269294142723083 -0.13603761792182922 0.07451297342777252 0.10656236112117767 0.16122393310070038 -0.11075180023908615 -0.0032739639282226562 0.0776716023683548 0.004772618412971497 0.017387613654136658 -0.010484114289283752 -0.09467947483062744 0.016255810856819153 -0.16478189826011658 -0.16175629198551178 0.1072763055562973 -0.06430482864379883 0.20190896093845367 0.17905013263225555 -0.21276921033859253 -0.22822299599647522 -0.041364267468452454 -0.015952780842781067 0.006628826260566711 -0.05985225737094879 -0.1726362407207489 0.16578416526317596 0.060466036200523376 0.008207082748413086 0.09026925265789032 0.09911291301250458 0.05142439901828766 -0.08090811967849731 0.03910030424594879 -0.10515588521957397 0.1079188734292984 0.09334816038608551 
-0.07611052691936493 -0.22200125455856323 -0.001975417137145996 0.10850514471530914 0.15964843332767487 0.08505286276340485 -0.07663089036941528 0.06510977447032928 0.15419317781925201 -0.18934449553489685 0.056683942675590515 -0.04388166964054108 0.04004432260990143 -0.18002849817276 0.1469583958387375 -0.04771240055561066 -0.039289236068725586 -0.019141435623168945 0.2226753681898117 0.10971580445766449 -0.19216451048851013 -0.22813603281974792 -0.09175737202167511 0.20637182891368866 -0.16689972579479218 -0.07578089833259583 0.05089254677295685 0.01829354465007782 -0.05486525595188141 0.11911554634571075 0.11368419229984283 -0.09529432654380798 -0.2184028923511505 0.2290409356355667 -0.042908549308776855 0.11649198830127716 -0.12426203489303589 -0.08390872180461884 0.0205715149641037 -0.15470854938030243 0.08834104239940643 0.004172712564468384 0.09845225512981415 -0.1309751570224762 0.12538014352321625 0.2013290971517563 0.10206456482410431 0.043627187609672546 0.06423543393611908 -0.06592829525470734 0.21803753077983856 -0.15118232369422913 -0.08576670289039612 0.18083621561527252 0.18142302334308624 0.16183964908123016 0.17652256786823273 0.05408920347690582 -0.1432056427001953 0.08013375103473663 -0.11540835350751877 -0.1331157088279724 0.18042422831058502 0.05053584277629852 
0.12284769117832184 -0.17356571555137634 -0.05861020088195801 0.17092610895633698 0.1430179625749588 -0.1715412139892578 0.15481071174144745 0.19403894245624542 -0.14013764262199402 0.040981605648994446 -0.12312234938144684 0.23329569399356842 -0.018445849418640137 0.0912928432226181 0.1065608412027359 0.18044234812259674 -0.1248665601015091 0.07626442611217499 0.05383135378360748 -0.12343224138021469 0.07472239434719086 0.22038625180721283 0.23349927365779877 0.015411421656608582 -0.1729828417301178 0.23321183025836945 0.018387064337730408 0.06778542697429657 -0.22305871546268463 -0.034432679414749146 -0.17332994937896729 -0.01772792637348175 0.00542508065700531 -0.05691249668598175 0.004272177815437317 0.0029771924018859863 -0.15320958197116852 -0.13149377703666687 -0.07171893119812012 -0.05840103328227997 0.13835106790065765 0.07357178628444672 0.09467573463916779 0.09838621318340302 0.036228880286216736 0.1454753428697586 -0.04530563950538635 -0.23348468542099 0.13351254165172577 0.15120981633663177 -0.044825389981269836 0.20918326079845428 0.13450904190540314 0.04658980667591095 -0.09357516467571259 -0.20131172239780426 -0.11446923762559891 -0.033923208713531494 -0.03264385461807251 0.057492032647132874 0.09125961363315582 0.02525801956653595 -0.1999492645263672 0.03690154850482941 
0.17092634737491608 0.14690084755420685 -0.07627120614051819 0.15890593826770782 -0.12324783951044083 0.11790315806865692 -0.18804429471492767 -0.22630231082439423 -0.2246110439300537 -0.024256080389022827 0.20864950120449066 0.13464169204235077 -0.1465449333190918 -0.03915785253047943 0.1038823276758194 -0.20740896463394165 0.09483273327350616 -0.21394625306129456 0.13545428216457367 -0.02090640366077423 0.16780756413936615 -0.053660109639167786 -0.16994214057922363 0.15015970170497894 -0.22269941866397858 -0.011926040053367615 0.030461028218269348 -0.054408103227615356 -0.2004602998495102 -0.2183261513710022 -0.06220768392086029 -0.12212931364774704 -0.009318113327026367 -0.06211760640144348 -0.1595127284526825 0.06531445682048798 -0.1752554476261139 0.009890571236610413 -0.06748081743717194 0.1273968666791916 -0.21348199248313904 -0.16540513932704926 0.15172837674617767 0.21942727267742157 -0.09332475066184998 0.10518570244312286 0.013026133179664612 0.015844568610191345 0.09162335097789764 0.19092752039432526 -0.16643038392066956 0.021872207522392273 0.1123865395784378 0.0259428471326828 0.22454015910625458 0.19685663282871246 0.15527133643627167 -0.11815807223320007 0.12171103060245514 0.19958461821079254 -0.12545442581176758 -0.06906469166278839 -0.0910189300775528 0.18993927538394928 
0.03725390136241913 -0.00882689654827118 -0.13223394751548767 0.2102772444486618 -0.19971665740013123 -0.2343762069940567 0.04732169210910797 -0.047255635261535645 0.19290141761302948 -0.1912333369255066 0.22414691746234894 0.01487414538860321 -0.052879005670547485 0.027680709958076477 0.1448337286710739 0.2331143170595169 0.20064140856266022 -0.20418153703212738 0.024719402194023132 0.04450999200344086 0.16919933259487152 -0.1944938600063324 -0.13326041400432587 -0.0011795759201049805 0.10278792679309845 -0.00827103853225708 -0.02083110809326172 -0.11967086046934128 0.08438779413700104 -0.22006265819072723 0.025102630257606506 -0.14111143350601196 0.04460032284259796 -0.18467721343040466 -0.024545565247535706 0.13174627721309662 0.1603880077600479 0.1178654283285141 0.13376770913600922 -0.21441707015037537 -0.07220710813999176 -0.19691622257232666 0.022331729531288147 -0.012902244925498962 -0.20788590610027313 0.05287139117717743 -0.13925406336784363 0.04117889702320099 0.02492724359035492 0.17144088447093964 -0.07261410355567932 -0.08153973519802094 0.14258576929569244 -0.1934020221233368 0.036461785435676575 0.09879712760448456 -0.06841778755187988 0.13701291382312775 0.08786998689174652 -0.07961702346801758 0.13402478396892548 -0.012998223304748535 -0.05793626606464386 -0.2035232037305832 
-0.16158677637577057 0.01050296425819397 -0.11071788519620895 -0.2336595505475998 0.0370396226644516 0.11324815452098846 0.17150311172008514 0.02652151882648468 0.20170550048351288 0.09136854112148285 -0.11380067467689514 0.1600927859544754 0.20165158808231354 0.1908847540616989 -0.23031207919120789 -0.19719597697257996 0.14140786230564117 0.12090058624744415 -0.21448585391044617 0.07346676290035248 0.005758389830589294 0.08784593641757965 0.0985773354768753 0.09273175895214081 -0.024092882871627808 -0.22447198629379272 0.17084409296512604 -0.16189739108085632 -0.03553159534931183 0.023744866251945496 -0.21764245629310608 -0.16510340571403503 0.120721235871315 -0.04095962643623352 -0.16772380471229553 -0.13711386919021606 0.1574081927537918 0.034092292189598083 0.09542639553546906 -0.2228119820356369 0.09624610841274261 0.12055729329586029 0.14028017222881317 -0.1287684589624405 0.18215860426425934 -0.07845155894756317 0.19974718987941742 -0.1439254730939865 0.0031203031539916992 -0.056204989552497864 -0.17766904830932617 0.21027879416942596 0.22558103501796722 -0.15832489728927612 -0.1512141227722168 -0.16120180487632751 -0.2179618626832962 -0.03880143165588379 0.05613572895526886 0.1269734650850296 0.06531177461147308 -0.23435352742671967 -0.09535424411296844 0.08608834445476532 
-0.21432490646839142 0.1995590478181839 -0.1868259310722351 -0.02528207004070282 0.11584173142910004 0.1580425649881363 0.0809020847082138 -0.08128809928894043 0.13957200944423676 0.029219195246696472 0.09661506116390228 -0.1094481498003006 0.058765754103660583 0.1162489503622055 -0.18229396641254425 0.07089348137378693 -0.10546211898326874 0.17591531574726105 -0.002656802535057068 -0.23341526091098785 0.04275481402873993 -0.10807771980762482 0.21031434834003448 0.16890524327754974 0.1109917014837265 0.183114692568779 -0.17036840319633484 0.07541410624980927 -0.20752371847629547 -0.20092356204986572 -0.07044081389904022 -0.07108481228351593 0.10747916996479034 0.00499434769153595 -0.10449400544166565 0.20182408392429352 -0.11406156420707703 0.15946869552135468 -0.2048485279083252 -0.062374547123909 -0.21272359788417816 -0.13697341084480286 -0.063266322016716 0.05685146152973175 0.23106719553470612 -0.05771893262863159 0.12264464795589447 0.023846283555030823 0.04091937839984894 0.21991391479969025 -0.19424262642860413 0.057296231389045715 -0.20737957954406738 0.014248639345169067 0.1520480364561081 -0.009195849299430847 0.22528915107250214 0.11582599580287933 -0.22973018884658813 -0.16932569444179535 -0.06143960356712341 0.21916814148426056 -0.1979200839996338 0.18415193259716034 
0.03818158805370331 -0.001585453748703003 0.1819959133863449 0.0810355395078659 0.10205866396427155 0.1296992152929306 0.16884510219097137 0.09926672279834747 -0.014121949672698975 -0.18740759789943695 0.05084027349948883 0.15934373438358307 0.027142122387886047 -0.1274082362651825 0.22518648207187653 0.09986354410648346 0.13196535408496857 0.01258377730846405 -0.180580735206604 -0.026688262820243835 -0.055708467960357666 0.08907420933246613 0.1742144376039505 -0.14957675337791443 -0.05481088161468506 0.09841285645961761 0.15673820674419403 -0.099832683801651 0.10695953667163849 0.13209499418735504 -0.029987037181854248 -0.13183528184890747 0.016266122460365295 0.17877410352230072 0.041751399636268616 -0.21752901375293732 0.20835258066654205 0.14685361087322235 -0.07609158754348755 0.11755956709384918 0.18573985993862152 -0.13896211981773376 0.04963083565235138 -0.12445241957902908 0.11797778308391571 0.09445817768573761 0.22358597815036774 0.020649448037147522 -0.2199200689792633 0.09188009798526764 -0.1085042804479599 0.14448238909244537 -0.0345536470413208 0.09393186867237091 0.08272187411785126 0.13318373262882233 0.12640045583248138 -0.11053663492202759 -0.11254093796014786 0.026025578379631042 0.07357750833034515 -0.02646656334400177 -0.1605968326330185 0.007312983274459839 
-0.19057102501392365 -0.06249666213989258 -0.14456436038017273 -0.20859192311763763 -0.07357199490070343 -0.04400286078453064 0.04415147006511688 0.02741430699825287 0.13236986100673676 0.17358796298503876 0.1847509890794754 0.006013989448547363 -0.023982703685760498 -0.16253018379211426 -0.1895025670528412 -0.14644718170166016 0.20998819172382355 -0.10026347637176514 -0.09984102845191956 0.09527070820331573 -0.14741015434265137 -0.05975133180618286 0.09707595407962799 0.11993812024593353 0.22842110693454742 -0.041993722319602966 -0.08653664588928223 -0.07704596221446991 0.13479875028133392 0.14627386629581451 -0.12953221797943115 0.18758757412433624 -0.21390564739704132 -0.07664915919303894 -0.10314688086509705 -0.022286713123321533 -0.2356005758047104 0.014173895120620728 0.15407361090183258 -0.03582894802093506 0.05288790166378021 0.1791316121816635 -0.08315777778625488 -0.05706748366355896 -0.21962054073810577 -0.04500176012516022 -0.20764967799186707 0.22822271287441254 0.14173148572444916 0.011707603931427002 -0.044264987111091614 -0.16333848237991333 0.019040122628211975 0.08088155090808868 -0.20009121298789978 0.07404448091983795 0.12826786935329437 0.14411766827106476 0.14067210257053375 -0.06015796959400177 0.09873874485492706 -0.10893966257572174 0.031772926449775696 -0.01358555257320404 
0.0001160651445388794 0.008679553866386414 0.15764398872852325 -0.12652677297592163 -0.17931267619132996 -0.02081306278705597 0.154876247048378 0.1577080935239792 -0.027908161282539368 -0.10194985568523407 0.12627051770687103 0.11209641396999359 -0.12198826670646667 -0.07586230337619781 0.10212142765522003 -0.049324408173561096 -0.21817034482955933 -0.07603572309017181 -0.15783171355724335 -0.038424164056777954 0.09991820156574249 -0.05175390839576721 0.06182210147380829 0.13470207154750824 -0.11843644082546234 -0.003965601325035095 0.10374106466770172 0.099826380610466 0.09276498854160309 -0.173074871301651 0.11410246789455414 0.1819692701101303 0.062039777636528015 0.005032643675804138 0.18641765415668488 0.2295330911874771 0.17743371427059174 0.2117966264486313 -0.014896750450134277 0.20910944044589996 0.15416143834590912 -0.07127250730991364 -0.23029248416423798 0.09775985777378082 0.18022798001766205 0.04655154049396515 -0.09176371991634369 0.19461561739444733 0.034552350640296936 0.09862928092479706 -0.07175107300281525 0.14225025475025177 -0.12482640892267227 0.058641448616981506 0.0511278361082077 -0.11970598250627518 -0.15258827805519104 -0.09320148825645447 0.1375502496957779 -0.21827693283557892 0.08434589207172394 0.015173271298408508 0.018213465809822083 -0.2310284823179245 
0.13520337641239166 0.12448020279407501 0.03677152097225189 0.14846722781658173 -0.029834941029548645 0.18848250806331635 0.16316403448581696 -0.06198801100254059 0.09985522925853729 -0.1470087766647339 0.2097105234861374 0.1410675197839737 -0.01616331934928894 -0.08962482213973999 0.21518735587596893 -0.21523401141166687 -0.05683651566505432 0.21426458656787872 0.024930253624916077 0.0007646232843399048 -0.1200985386967659 0.02450762689113617 0.05258522927761078 0.1497223824262619 -0.09341070055961609 -0.09414288401603699 -0.10867011547088623 -0.10118669271469116 -0.051942676305770874 -0.15167619287967682 0.04288013279438019 0.1191575676202774 -0.11796490103006363 0.11737723648548126 0.17154954373836517 -0.1685182750225067 0.14713512361049652 0.04976905882358551 0.08522920310497284 -0.02724488079547882 -0.23468972742557526 -0.12722143530845642 0.12885810434818268 0.048429980874061584 0.05604924261569977 0.07829083502292633 -0.07814748585224152 0.18903614580631256 0.0672479122877121 -0.1492691934108734 -0.08951370418071747 -0.04171361029148102 -0.12900228798389435 -0.0498858243227005 -0.10278500616550446 0.11689899861812592 -0.2006932646036148 -0.1910281777381897 0.11557389795780182 0.07421351969242096 0.16758783161640167 -0.05417165160179138 -0.04157218337059021 -0.14699368178844452 
0.040974393486976624 -0.20525546371936798 0.18407244980335236 0.18366055190563202 0.23002783954143524 0.044595614075660706 0.10297392308712006 -0.1096554547548294 -0.03592732548713684 -0.1974138766527176 0.14480255544185638 -0.025965943932533264 0.05993349850177765 -0.2319224774837494 0.15932683646678925 -0.0340016633272171 0.06641165912151337 -0.17746615409851074 0.06319640576839447 -0.0751032680273056 -0.1337088644504547 -0.1373225450515747 0.07395584881305695 0.17571209371089935 0.15634049475193024 -0.0016385316848754883 -0.22592498362064362 0.06156773865222931 -0.2096174955368042 -0.013812616467475891 0.083152636885643 -0.037927329540252686 -0.22574040293693542 0.08738632500171661 -0.03307311236858368 0.11888860166072845 -0.09000667929649353 0.2225814312696457 0.023064568638801575 0.1868864744901657 0.039083078503608704 0.17335130274295807 0.13739944994449615 -0.17293903231620789 0.08987213671207428 -0.05824112892150879 0.11955966055393219 -0.18651941418647766 0.2002098113298416 0.1259666234254837 -0.062174081802368164 -0.04001745581626892 -0.07762952148914337 0.23045943677425385 0.07106567919254303 -0.20643053948879242 -0.0077242255210876465 0.205045685172081 -0.17804433405399323 0.13970477879047394 -0.17500312626361847 0.013171374797821045 0.1733204871416092 0.03534255921840668 
-0.09307709336280823 0.012188926339149475 0.10787336528301239 0.11068223416805267 0.21785418689250946 -0.16617557406425476 0.15826131403446198 0.14858315885066986 -0.10339270532131195 0.10598514974117279 -0.005439504981040955 -0.02859775722026825 -0.07666058838367462 0.10161896049976349 0.07819201052188873 -0.016862675547599792 0.08762972056865692 -0.20298169553279877 0.21709086000919342 -0.13844309747219086 -0.210561603307724 -0.11806318908929825 -0.11239960789680481 -0.011512473225593567 -0.15422725677490234 -0.12594670057296753 -0.1734423190355301 -0.11860615015029907 0.05762644112110138 -0.2243528515100479 -0.1973876655101776 -0.16392654180526733 -0.2153574675321579 0.005706563591957092 0.0650334507226944 -0.09494122862815857 -0.1367073804140091 -0.11988639831542969 0.23510156571865082 0.18583418428897858 0.02417801320552826 -0.05101022124290466 -0.03139220178127289 0.18843068182468414 0.08777870237827301 0.1616639345884323 -0.019804999232292175 -0.014272615313529968 0.13071756064891815 -0.1484771966934204 0.031399086117744446 -0.016351178288459778 -0.03264433145523071 -0.17900896072387695 -0.04519319534301758 -0.14850139617919922 0.019433602690696716 -0.05708262324333191 -0.19611111283302307 -0.18760806322097778 -0.04844777286052704 0.12419779598712921 0.07839079201221466 0.1403849869966507 
-0.003119423985481262 -0.07893329858779907 0.12898851931095123 0.14203409850597382 0.2303866297006607 0.1863861232995987 0.11456681787967682 -0.07095377147197723 -0.20965264737606049 -0.08542855083942413 0.11972875893115997 -0.1506354808807373 0.1760963648557663 -0.07312275469303131 -0.2154868096113205 0.031580850481987 0.14906011521816254 -0.058833882212638855 -0.1274072527885437 -0.15599551796913147 0.08119235932826996 0.08923231065273285 0.027965649962425232 -0.06222139298915863 -0.02932436764240265 -0.14198099076747894 -0.136281356215477 -0.18813002109527588 0.040631458163261414 -0.1163187026977539 -0.12377863377332687 0.05677799880504608 0.05075366795063019 0.20908693969249725 -0.002774834632873535 -0.07713831961154938 0.07794077694416046 -0.17675012350082397 -0.20243602991104126 -0.0329151451587677 -0.1365821659564972 0.18401561677455902 -0.00828978419303894 0.05541135370731354 -0.19926010072231293 0.10316477715969086 -0.11079302430152893 -0.1906425952911377 3.0115246772766113e-05 0.1351473480463028 -0.07317367196083069 -0.1650448739528656 -0.1791498214006424 -0.08646897971630096 0.12860997021198273 -0.1327763944864273 0.1012570708990097 0.09705252945423126 0.10428382456302643 0.22150342166423798 0.14348669350147247 0.09627951681613922 0.0669330507516861 -0.10445383191108704 
-0.20830965042114258 0.10020248591899872 0.19860325753688812 -0.007991805672645569 0.016181156039237976 0.09045957028865814 0.11593799293041229 0.05476142466068268 0.10626141726970673 0.03107611835002899 0.002822861075401306 -0.026300624012947083 -0.017593026161193848 -0.09158830344676971 -0.12867039442062378 -0.042590513825416565 0.018545642495155334 -0.073990598320961 -0.061229899525642395 0.0015595704317092896 0.22748281061649323 -0.03949342668056488 0.05415238440036774 0.21008427441120148 0.18200556933879852 -0.13832134008407593 -0.18985792994499207 -0.04979352653026581 0.08656160533428192 -0.014209389686584473 -0.2196330428123474 0.1852162629365921 0.16235648095607758 0.13904736936092377 -0.11623991280794144 -0.16948550939559937 -0.09881067276000977 0.1601262241601944 0.23518918454647064 0.05294971168041229 -0.044777482748031616 0.2011520117521286 -0.21770620346069336 -0.015208467841148376 0.0027908235788345337 0.014138415455818176 -0.18778096139431 -0.14687670767307281 0.020646199584007263 -0.23473791778087616 -0.047153979539871216 0.10690547525882721 -0.13565215468406677 -0.18586206436157227 -0.16138756275177002 -0.07170727849006653 -0.008562043309211731 0.12352494895458221 -0.19660091400146484 0.09724418818950653 0.10671307146549225 0.2262498289346695 0.027089759707450867 -0.0032946765422821045 
0.11808176338672638 -0.04195302724838257 -0.20779773592948914 0.03374983370304108 -0.12997427582740784 0.01107141375541687 -0.014298290014266968 0.20092003047466278 0.12632633745670319 -0.07275299727916718 -0.1963309496641159 -0.13282468914985657 0.0826721042394638 0.0471673458814621 -0.011709794402122498 -0.17213240265846252 -0.00948554277420044 0.08419705927371979 0.09403584897518158 0.20187406241893768 -0.15079250931739807 0.21789078414440155 0.18787552416324615 0.16250424087047577 -0.13771915435791016 0.09507842361927032 -0.1708771288394928 0.1325446516275406 -0.03958339989185333 -0.07977813482284546 -0.11690147966146469 -0.09590080380439758 0.09324188530445099 0.06908293068408966 0.2116352766752243 -0.06501688063144684 -0.18844307959079742 -0.04909166693687439 -0.16816474497318268 -0.135430246591568 -0.1658760905265808 0.057137295603752136 -0.11932536959648132 -0.20980793237686157 0.20778729021549225 -0.012303084135055542 0.048995450139045715 0.16771884262561798 -0.08169601857662201 0.047147080302238464 0.07090438902378082 -0.09537480771541595 -0.076353058218956 -0.09290477633476257 -0.11463423073291779 -0.19385330379009247 0.06329451501369476 0.11394171416759491 0.009212970733642578 0.10845686495304108 -0.06338357925415039 -0.1749991476535797 0.022877439856529236 0.03792007267475128 
-0.008835002779960632 0.0691002905368805 -0.09039434790611267 0.1214701235294342 0.030927643179893494 0.12244920432567596 0.026803553104400635 -0.04106028378009796 0.08207415044307709 -0.11871017515659332 -0.016751393675804138 0.01873500645160675 0.049838706851005554 -0.06697341799736023 -0.07618436217308044 -0.023745208978652954 -0.09429594874382019 0.08544571697711945 0.036758944392204285 0.0870918482542038 0.05479602515697479 0.044011324644088745 -0.029130995273590088 0.07631121575832367 -0.07655739784240723 -0.09133034944534302 0.07117325067520142 0.04772011935710907 -0.05914677679538727 -0.11429998278617859 0.09818130731582642 -0.0008040070533752441 
-0.07502996921539307 -0.07436579465866089 -0.02196960151195526 -0.018192440271377563 0.06446103751659393 -0.021761879324913025 -0.11407123506069183 0.007884711027145386 0.08457435667514801 0.021123170852661133 0.059887126088142395 -0.00015972554683685303 -0.12221802771091461 -0.1151123195886612 0.03643865883350372 0.00031210482120513916 0.01632094383239746 0.11805599927902222 -0.07954519987106323 0.08432942628860474 0.04139545559883118 -0.04683759808540344 -0.021885961294174194 0.006406188011169434 0.07129359245300293 -0.031640082597732544 -0.03084711730480194 0.07403896749019623 -0.11842691898345947 -0.07064658403396606 -0.12304703891277313 0.07783065736293793 
0.10255756974220276 -0.11331161856651306 -0.0864906907081604 -0.017646506428718567 -0.08652143180370331 0.03785093128681183 0.005134314298629761 0.04760250449180603 0.11180400848388672 -0.017674431204795837 0.05689476430416107 0.026225969195365906 -0.02226431667804718 0.04873354732990265 -0.10249000787734985 -0.032855480909347534 0.046894773840904236 0.09954188764095306 -0.034178003668785095 -0.054498329758644104 0.02270081639289856 -0.12441839277744293 -0.0986124575138092 -0.120414599776268 -0.03297880291938782 0.03154215216636658 0.009802296757698059 -0.05505181849002838 0.040213435888290405 0.035048723220825195 0.11640645563602448 0.04606799781322479 
0.09573021531105042 -0.024972140789031982 0.11970798671245575 -0.000944674015045166 -0.07049643993377686 -0.051028430461883545 -0.029890969395637512 -0.10632562637329102 0.1200709193944931 0.03606921434402466 -0.023333296179771423 -0.09189407527446747 0.013983353972434998 -0.014306291937828064 -0.11301161348819733 0.12305088341236115 0.12446224689483643 -0.11850689351558685 -0.04200683534145355 0.022702589631080627 -0.03241296112537384 -0.07273970544338226 -0.06452138721942902 0.007257431745529175 0.06049090623855591 0.08825330436229706 -0.08548122644424438 0.009990066289901733 -0.11853338778018951 0.12476927042007446 -0.0758495032787323 -0.05008572340011597 
0.12480755150318146 0.05853237211704254 0.06983248889446259 0.1215488612651825 0.02016068994998932 -0.014725357294082642 -0.10371218621730804 0.10558202862739563 -0.021752864122390747 0.12094387412071228 0.09951061010360718 0.012036561965942383 -0.11878135800361633 -0.03348739445209503 -0.0189591646194458 -0.06424826383590698 0.07541041076183319 -0.056378692388534546 0.029984697699546814 0.054369062185287476 0.040388599038124084 -0.06888963282108307 -0.0465540736913681 0.012223690748214722 -0.07599310576915741 -0.05393481254577637 0.07915106415748596 -0.03027491271495819 -0.0032583028078079224 0.10898689925670624 0.06286275386810303 -0.004360988736152649 
0.06460732221603394 0.06468415260314941 -0.11797475814819336 0.016499370336532593 -0.04831582307815552 -0.10072663426399231 0.06346583366394043 -0.0720377117395401 -0.016659706830978394 0.020638838410377502 0.05240738391876221 0.019151583313941956 -0.0915280431509018 0.12427282333374023 0.08250546455383301 0.11688864231109619 0.08803965151309967 -0.04273611307144165 0.030623793601989746 0.05366683006286621 0.08022159337997437 0.11163964867591858 0.08780038356781006 -0.09410114586353302 0.1124667376279831 0.03825618326663971 -0.005266427993774414 -0.028483614325523376 0.1219290941953659 -0.0545370876789093 0.020864367485046387 0.06838318705558777 
0.0010564923286437988 0.024295702576637268 -0.09165115654468536 0.10025864839553833 -0.11413435637950897 -0.10869070887565613 -0.012868821620941162 -0.06112699210643768 -0.02249319851398468 -0.1198941171169281 -0.013772174715995789 -0.07321099936962128 -0.006346315145492554 -0.032194286584854126 -0.11469538509845734 0.010863155126571655 0.03857257962226868 -0.09518483281135559 0.003697410225868225 -0.0038539618253707886 -0.06406037509441376 0.02779775857925415 -0.12234340608119965 0.07269330322742462 -0.12284693121910095 0.007943496108055115 0.02238239347934723 -0.01693776249885559 -0.10162049531936646 0.09348724782466888 -0.04166093468666077 0.05114874243736267 
0.062136441469192505 0.020082205533981323 0.015056237578392029 -0.1193256676197052 0.06936480104923248 -0.05890919268131256 0.01005949079990387 -0.01752324402332306 0.11924467980861664 -0.12328538298606873 -0.07706119120121002 0.09516194462776184 -0.03601716458797455 -0.10141423344612122 -0.10859337449073792 0.018314659595489502 0.06988708674907684 0.0384872704744339 0.07410787045955658 -0.0544542521238327 0.1156851202249527 -0.025699347257614136 -0.04420197010040283 0.04180756211280823 -0.013093933463096619 -0.0707361102104187 -0.015773877501487732 0.09798693656921387 -0.0109320729970932 0.043090373277664185 -0.08318021893501282 0.04300868511199951 
-0.10910430550575256 0.018074944615364075 -0.10328303277492523 0.07069621980190277 -0.05690397322177887 0.057820841670036316 0.04493074119091034 -0.06842213869094849 -0.053776487708091736 -0.10124549269676208 0.00804300606250763 0.03934521973133087 0.015183642506599426 -0.0905364602804184 -0.07188750803470612 0.06823980808258057 -9.229779243469238e-05 -0.10937128961086273 0.06763608753681183 0.04919463396072388 -0.09452062845230103 0.11644759774208069 -0.07792925834655762 0.04059605300426483 -0.016866102814674377 0.09922768175601959 -0.025011524558067322 0.009556055068969727 -0.008870810270309448 0.04353497922420502 -0.10703040659427643 -0.013730630278587341 
0.09803159534931183 -0.03717851638793945 -0.09755545854568481 0.03539840877056122 -0.034331247210502625 -0.06335975229740143 0.12272928655147552 -0.00743478536605835 0.06971776485443115 -0.0868724137544632 0.07900050282478333 0.039162665605545044 -0.029639244079589844 0.10052616894245148 -0.10072612762451172 -0.08018872141838074 -0.08293294906616211 0.019604653120040894 0.11226767301559448 0.01097157597541809 0.05464939773082733 0.10799001157283783 0.024494528770446777 -0.026217207312583923 -0.08488315343856812 -0.034387797117233276 -0.11342033743858337 0.116309255361557 -0.017090141773223877 -0.04965391755104065 0.018152743577957153 0.04422636330127716 
-0.11469176411628723 0.03587086498737335 -0.11339464783668518 -0.10788935422897339 0.054164767265319824 0.030260547995567322 0.1179126501083374 0.012623459100723267 0.0028661787509918213 -0.035129040479660034 -0.0009419023990631104 0.05100889503955841 0.025892168283462524 -0.0940251499414444 -0.12357062101364136 -0.07273998856544495 -0.12458199262619019 0.07874123752117157 0.01628027856349945 -0.058030158281326294 0.05420978367328644 -0.0729837417602539 -0.09587228298187256 -0.023567721247673035 0.011984065175056458 0.004044845700263977 0.04631556570529938 -0.10715894401073456 -0.08195070922374725 0.09515909850597382 0.0708191841840744 0.11983649432659149 
0.09361402690410614 0.09165120124816895 0.03119555115699768 0.1107189804315567 -0.0006328374147415161 -0.07003584504127502 -0.06134501099586487 -0.11512494087219238 -0.020488247275352478 -0.040721431374549866 0.03283938765525818 0.10285186767578125 0.049621567130088806 -0.030085489153862 -0.06502038240432739 0.11030919849872589 -0.11094184219837189 -0.10517045855522156 -0.0814548134803772 -0.02648523449897766 -0.045450955629348755 0.1096809059381485 0.0036488771438598633 -0.018603280186653137 0.07670648396015167 0.03109702467918396 -0.0027572065591812134 -0.11844897270202637 -0.11114147305488586 0.1103464663028717 0.058471351861953735 0.11244866251945496 
0.018079504370689392 0.008109688758850098 0.1093427836894989 0.0795573890209198 0.12102460861206055 -0.10089869797229767 -0.07166075706481934 -0.0622149258852005 -0.11838638782501221 -0.09714218974113464 0.10588297247886658 0.08924615383148193 -0.019178345799446106 -0.06379124522209167 -0.009838402271270752 -0.12037575244903564 -0.07542809844017029 0.10565564036369324 0.0622657835483551 -0.039505913853645325 -0.055621013045310974 0.10661333799362183 0.04943576455116272 -0.12050724029541016 -0.022279471158981323 0.057681262493133545 -0.09876379370689392 -0.051070600748062134 -0.120338574051857 -0.12073549628257751 0.05442853271961212 0.08252125978469849 
-0.10832829773426056 0.018631979823112488 0.012137725949287415 0.012116387486457825 0.09451015293598175 -0.03413747251033783 -0.04323355853557587 -0.01541544497013092 0.07277363538742065 0.09485423564910889 0.07938911020755768 -0.011485517024993896 -0.045642539858818054 -0.1018374115228653 -0.01077522337436676 0.0726063996553421 0.0867556631565094 -0.12051261961460114 -0.0370396226644516 -0.08771565556526184 0.014666527509689331 -0.08579443395137787 -0.03796596825122833 -0.12028549611568451 -0.04691912233829498 -0.05311685800552368 0.12274253368377686 -0.02148224413394928 -0.05120296776294708 -0.035858154296875 0.037467122077941895 -0.12285405397415161 
-0.05138996243476868 -0.01307418942451477 -0.06316116452217102 0.09842517971992493 0.11696581542491913 -0.03389109671115875 0.0330323725938797 -0.029114842414855957 -0.08382897078990936 -0.037918418645858765 -0.09055337309837341 -0.06800307333469391 0.04109370708465576 -0.04871229827404022 0.008068755269050598 0.0037211626768112183 -0.03975491225719452 -0.09851539134979248 -0.09036123752593994 0.05450531840324402 0.05373165011405945 0.11842383444309235 -0.04428711533546448 -0.061090365052223206 0.0284690260887146 0.0930817574262619 0.06547777354717255 -0.017467856407165527 0.034546270966529846 0.03208188712596893 -0.03256574273109436 0.07101072371006012 
0.07392936944961548 0.05478377640247345 -0.12212830781936646 0.05195116996765137 0.07053059339523315 -0.005064815282821655 0.0891309529542923 -0.09302400052547455 0.0013265758752822876 0.10338713228702545 -0.022168710827827454 0.01676720380783081 -0.12451164424419403 -0.007532268762588501 -0.04777368903160095 0.1235339492559433 0.06758087873458862 -0.027954742312431335 0.09324313700199127 0.10049547255039215 0.12349435687065125 -0.040627673268318176 -0.0334322452545166 -0.10612131655216217 -0.08562003076076508 0.04834236204624176 0.036986902356147766 0.08877532184123993 -0.019796282052993774 0.047131240367889404 -0.07947064936161041 0.12010921537876129 
0.11622442305088043 -0.10168319940567017 -0.08697649836540222 0.007867604494094849 0.017058074474334717 0.026385262608528137 -0.09690526127815247 0.0276557058095932 -0.011002197861671448 -0.11031989753246307 0.0630982369184494 0.010223016142845154 -0.10780742764472961 -0.04132385551929474 0.03734999895095825 -0.03208252787590027 0.03302706778049469 0.08409649133682251 -0.050708308815956116 0.04705755412578583 -0.020319953560829163 -0.028009578585624695 -0.10087734460830688 -0.06342007219791412 -0.08003512024879456 0.11887907981872559 -0.006779775023460388 0.08998094499111176 -0.07446807622909546 -0.0879850834608078 -0.0011860579252243042 -0.05707232654094696 
-0.008458435535430908 0.04068399965763092 -0.11309647560119629 -0.03310079872608185 0.11778999865055084 0.006895318627357483 0.04631093144416809 0.08352440595626831 0.02093726396560669 0.08750908076763153 -0.020609021186828613 -0.10659269988536835 -0.03222885727882385 0.09157471358776093 -0.07514457404613495 0.07462793588638306 -0.06931066513061523 0.08894805610179901 -0.0920708030462265 -0.0218522846698761 -0.03578720986843109 -0.11560170352458954 0.06986433267593384 0.07701441645622253 0.05689908564090729 0.08678822219371796 -0.03281205892562866 -0.08142790198326111 0.022774413228034973 -0.09168487787246704 0.04426583647727966 -0.01943954825401306 
0.038516566157341 0.03941822052001953 0.034205079078674316 -0.06121596693992615 0.019768163561820984 -0.1025155782699585 -0.0167989581823349 0.06729936599731445 -0.022897377610206604 0.0459548681974411 0.048378750681877136 -0.0623047798871994 -0.02291513979434967 -0.07776939868927002 0.0892636626958847 -0.07055845856666565 -0.03196607530117035 -0.032659828662872314 -0.0880853533744812 0.038538143038749695 -0.11717215180397034 0.10201580822467804 -0.1227346658706665 -0.08333295583724976 -0.008322462439537048 -0.04950334131717682 -0.09393808245658875 -0.016848579049110413 0.006060123443603516 0.016111448407173157 -0.07264196872711182 -0.08974523842334747 
-0.004076644778251648 0.12463858723640442 -0.07696695625782013 -0.0036713629961013794 0.08546237647533417 0.09306666254997253 -0.07411128282546997 0.05744558572769165 -0.006852686405181885 0.08222435414791107 -0.10425084829330444 -0.02115650475025177 -0.09502474963665009 -0.061531588435173035 0.019888639450073242 0.08527156710624695 -0.08260427415370941 0.005415394902229309 0.10331593453884125 0.07291460037231445 0.04543843865394592 0.06920754909515381 -0.06177300214767456 0.012676805257797241 -0.06123296916484833 0.08532948791980743 -0.0014031976461410522 -0.09515358507633209 -0.010854274034500122 -0.011881649494171143 0.024632588028907776 -0.07776649296283722 
-0.07358846068382263 0.09212417900562286 0.04921811819076538 0.0390402227640152 0.05261857807636261 0.01869341731071472 0.021343663334846497 0.050711169838905334 -0.052465543150901794 0.024201437830924988 -0.042521119117736816 -0.09485891461372375 -0.10060593485832214 -0.06271451711654663 -0.0024699121713638306 0.05847404897212982 -0.05649350583553314 -0.028827384114265442 -0.06264194846153259 0.09129241108894348 -0.07167278230190277 -0.012954428791999817 0.014700427651405334 0.0878715068101883 0.10866208374500275 0.06824511289596558 -0.0573408305644989 0.014394983649253845 -0.009974047541618347 -0.003644227981567383 -0.01898472011089325 0.012554794549942017 
0.08234238624572754 0.009302884340286255 0.04087917506694794 0.08830000460147858 -0.003999203443527222 -0.05787274241447449 0.06029994785785675 -0.0981212854385376 0.03199648857116699 -0.012276828289031982 0.07460053265094757 -0.018454477190971375 0.025661200284957886 -0.08788275718688965 0.022586271166801453 0.053121551871299744 0.07379606366157532 0.040483444929122925 0.04050727188587189 -0.019035011529922485 0.044213905930519104 -0.1039847582578659 0.039262786507606506 0.10776464641094208 -0.08157895505428314 0.027390792965888977 -0.09690457582473755 0.11410579085350037 0.06706979870796204 0.11107112467288971 -0.06418515741825104 -0.11478209495544434 
0.06082575023174286 0.0535433292388916 0.0960349589586258 0.012525603175163269 -0.016925230622291565 -0.1036425232887268 -0.029830336570739746 0.03568834066390991 0.0316876620054245 -0.12175416946411133 0.10726062953472137 -0.07096292078495026 0.08031730353832245 -0.017635926604270935 0.11936554312705994 0.033365339040756226 0.11989016830921173 -0.08802755177021027 -0.04289288818836212 -0.10908721387386322 -0.03499794006347656 0.07078002393245697 0.06951338052749634 -0.007955491542816162 0.11908510327339172 -0.08775459229946136 -0.012223780155181885 -0.08026677370071411 -0.02965298295021057 -0.04955737292766571 0.09383365511894226 0.11110895872116089 
0.12133736908435822 -0.04191522300243378 0.09983047842979431 -0.06633396446704865 0.029769837856292725 -0.061556294560432434 -0.05796387791633606 -0.09226354956626892 -0.02656257152557373 -0.08826965093612671 -0.11116829514503479 -0.08427976071834564 -0.06966118514537811 0.04884418845176697 -0.04769507050514221 0.055449843406677246 0.11520986258983612 -0.09755584597587585 -0.11565281450748444 -0.09577101469039917 -0.03731623291969299 -0.050187692046165466 -0.06949326395988464 -0.0475570410490036 0.11031672358512878 -0.05466155707836151 -0.10422506928443909 -0.10866917669773102 -0.10928517580032349 -0.06612733006477356 -0.04055051505565643 0.021561235189437866 
-0.05851927399635315 -0.05545796453952789 -0.06604358553886414 0.029294222593307495 0.09710021317005157 0.06490285694599152 -0.04249967634677887 0.08973157405853271 0.05853848159313202 0.007781893014907837 -0.017849311232566833 -0.1010342687368393 -0.05254252254962921 -0.01001112163066864 -0.11803673207759857 0.08000734448432922 0.07578612864017487 -0.018748372793197632 -0.06102347373962402 0.01002243161201477 0.09912598133087158 -0.019077390432357788 -0.10094214975833893 0.003541812300682068 -0.01624588668346405 0.11914196610450745 -0.05517677962779999 -0.04400646686553955 -0.11329492926597595 -0.020389467477798462 -0.052821189165115356 0.026094138622283936 
0.0916215181350708 0.003846690058708191 0.10748450458049774 -0.0900593250989914 -0.025930076837539673 -0.04835154116153717 -0.0662916749715805 0.06718350946903229 0.05374760925769806 0.026457786560058594 -0.02209046483039856 0.009261906147003174 -0.074653759598732 0.005665794014930725 0.08384715020656586 0.06259877979755402 0.06036081910133362 0.041655585169792175 0.0724378228187561 -0.05726446211338043 0.12148107588291168 0.0758073478937149 0.015850767493247986 0.051241010427474976 -0.09797292947769165 -0.0463726669549942 -0.011315226554870605 -0.03514312207698822 -0.016667157411575317 -0.10565721988677979 -0.04253901541233063 -0.06587640941143036 
0.052091777324676514 0.07852926850318909 -0.02148495614528656 0.0735757052898407 -0.0019995421171188354 0.07654337584972382 0.11227984726428986 0.05133169889450073 0.12128962576389313 -0.11934119462966919 -0.00620192289352417 0.08373488485813141 0.10206468403339386 0.0019098073244094849 0.04900252819061279 0.04240843653678894 -0.1234319806098938 0.10216142237186432 0.0798235833644867 0.028904736042022705 0.008655548095703125 -0.01099589467048645 -0.042630553245544434 -0.0816512256860733 0.006836220622062683 -0.0926019698381424 0.09719902276992798 -0.12493856251239777 0.026721253991127014 0.04367467761039734 -0.08593970537185669 0.0798109918832779 
0.07906542718410492 0.0444391667842865 -0.01000887155532837 -0.07681803405284882 -0.11003458499908447 -0.06279635429382324 0.09721335768699646 -0.051831454038619995 -0.12240263819694519 0.029640674591064453 -0.1203760951757431 0.04565659165382385 0.0002740025520324707 0.059760138392448425 0.030888080596923828 0.02068488299846649 -0.04868316650390625 0.05844038724899292 0.028308376669883728 -0.11111558973789215 -0.09835478663444519 0.06572069227695465 -0.044360384345054626 0.05238275229930878 0.05355410277843475 -0.03309686481952667 -0.05763237178325653 0.04559594392776489 0.07084725797176361 0.09011061489582062 0.05564713478088379 0.02596054971218109 
0.004225492477416992 -0.11148825287818909 -0.04497048258781433 -0.09164005517959595 0.10035103559494019 -0.07893197238445282 -0.003583952784538269 -0.01750023663043976 -0.09875304996967316 0.005864158272743225 0.11911456286907196 0.06732654571533203 0.09379613399505615 -0.026616781949996948 0.013005226850509644 0.03997880220413208 0.12000738084316254 -0.0640055239200592 -0.09886933863162994 0.051378726959228516 0.023023486137390137 0.06334838271141052 -0.011637464165687561 0.01209084689617157 -0.07477882504463196 0.08083288371562958 -0.05281282961368561 -0.01434895396232605 0.029925808310508728 0.09000015258789062 -0.026267394423484802 -0.06745956838130951 
0.1149740219116211 -0.08395195007324219 0.032803863286972046 -0.08000847697257996 -0.004398316144943237 0.019035428762435913 0.12365788221359253 0.0035166144371032715 -0.045737117528915405 -0.0694943517446518 0.026776283979415894 -0.11767531931400299 -0.03179551661014557 0.019774436950683594 0.11379823088645935 -0.06381171941757202 0.12406997382640839 -0.12275491654872894 0.12205424904823303 -0.07782919704914093 0.03875678777694702 -0.12376977503299713 -0.0678490698337555 -0.0015059411525726318 -0.025639265775680542 0.03435590863227844 -0.08614835143089294 0.004815950989723206 -0.12348110973834991 -0.08312088251113892 0.05673284828662872 -0.0009019523859024048 
-0.1190498024225235 -0.03550972044467926 0.0864098072052002 -0.041241586208343506 -0.026619359850883484 -0.12002106010913849 -0.10045754909515381 0.11306510865688324 -0.022312209010124207 -0.051895469427108765 0.06231732666492462 -0.11970783770084381 0.10529474914073944 -0.1079794317483902 -0.09979535639286041 -0.0797707587480545 0.01602354645729065 0.08501268923282623 0.06982377171516418 -0.06846599280834198 0.01813378930091858 -0.08213068544864655 0.061535537242889404 0.012743860483169556 0.037989720702171326 -0.09210227429866791 -0.10056173801422119 -0.01306082308292389 0.007036283612251282 0.07441189885139465 0.06295441091060638 -0.08903035521507263 
0.08823773264884949 0.06561169028282166 -0.004627585411071777 0.030547618865966797 0.04017616808414459 0.05582529306411743 -0.062265679240226746 0.08612139523029327 -0.09707890450954437 0.016744881868362427 -0.07810117304325104 -0.0765412300825119 0.009907498955726624 0.06342391669750214 -0.10602612793445587 -0.04723772406578064 0.03936725854873657 0.03928947448730469 -0.03143443167209625 0.041149333119392395 0.006833955645561218 0.007762223482131958 0.11937583982944489 0.0178716778755188 -0.05189847946166992 0.059652671217918396 0.05242908000946045 -0.050856247544288635 0.09203965961933136 -0.11474406719207764 0.10914413630962372 -0.07152357697486877 
0.12126640975475311 -0.0734330415725708 0.00034837424755096436 -0.10219284892082214 -0.10105077922344208 -0.06187400221824646 0.012964531779289246 -0.06329932808876038 0.10634991526603699 0.018536701798439026 -0.042059943079948425 -0.017526671290397644 0.0017663687467575073 0.0763295441865921 -0.11345131695270538 -0.03163504600524902 -0.044612184166908264 0.024334758520126343 -0.07897347211837769 -0.061745017766952515 -0.11641508340835571 -0.09226243197917938 -0.10455188155174255 -0.024697288870811462 -0.0960969626903534 -0.11567768454551697 0.04891037940979004 -0.06362272799015045 -0.10489706695079803 0.02473112940788269 0.11075185239315033 0.011759117245674133 
-0.10943672060966492 0.10038657486438751 -0.07909978926181793 -0.07230661809444427 -0.0748353898525238 0.012416645884513855 0.018615633249282837 0.08448335528373718 0.0951903760433197 -0.03287599980831146 0.1000099778175354 -0.044559866189956665 0.0722411721944809 -0.10489819943904877 0.11967983841896057 -0.11559933423995972 0.0199708491563797 -0.061826497316360474 -0.0711098313331604 0.03725267946720123 0.03223298490047455 -0.03699415922164917 0.04357822239398956 -0.11058132350444794 -0.061735302209854126 -0.0555366575717926 0.07700911164283752 0.10457728803157806 0.08003142476081848 -0.007472991943359375 -0.020597249269485474 0.031774625182151794 
0.004527926445007324 0.10506989061832428 0.02425643801689148 0.03065498173236847 -0.10757072269916534 0.034054726362228394 -0.028884679079055786 -0.05449402332305908 -0.009906664490699768 0.045871928334236145 -0.0450076162815094 0.10285644233226776 -0.0034112930297851562 0.0031156986951828003 0.0013545453548431396 0.028585106134414673 -0.08113475143909454 0.0073725879192352295 -0.02187742292881012 0.09480781853199005 0.04277324676513672 -0.11991360783576965 -0.0413571298122406 -0.12093780934810638 -0.09963379800319672 0.08853520452976227 0.09973596036434174 0.008703619241714478 0.04014401137828827 -0.06621408462524414 -0.06899937987327576 0.0012925267219543457 
-0.04290372133255005 -0.07585158944129944 0.11671611666679382 0.03887012600898743 0.022104427218437195 -0.11806954443454742 -0.029143676161766052 0.011819213628768921 0.0685233324766159 -0.02766445279121399 0.03551250696182251 -0.04397225379943848 0.08940558135509491 0.0642411857843399 0.05680963397026062 0.11955849826335907 0.041213542222976685 -0.001218542456626892 -0.030385375022888184 0.11811096966266632 0.036138057708740234 -0.08467239141464233 -0.08848878741264343 0.07605928182601929 0.0154009610414505 -0.11205646395683289 0.12274819612503052 -0.03910776972770691 -0.0220659077167511 -0.033069998025894165 0.11948364973068237 0.08390752971172333 
0.038756951689720154 0.07071161270141602 0.05729791522026062 -0.018457069993019104 -0.047881290316581726 -0.12386682629585266 0.1214057058095932 0.05434364080429077 0.0994194895029068 0.07675836980342865 0.06984508037567139 -0.058092907071113586 -0.0914965569972992 -0.09568540751934052 0.05223187804222107 -0.017734989523887634 0.02818313241004944 0.04789377748966217 -0.04494684934616089 0.052955642342567444 -0.006714537739753723 0.04323031008243561 -0.016574621200561523 -0.00554598867893219 -0.05835263431072235 0.09438610076904297 0.11881749331951141 -0.09351427853107452 0.002021104097366333 -0.024664580821990967 0.0206843763589859 0.10199058055877686 
0.08980822563171387 0.003902718424797058 0.09785193204879761 -0.06967830657958984 -0.06445421278476715 0.016977518796920776 -0.11376306414604187 -0.06878530979156494 -0.008972719311714172 -0.0683322548866272 0.08607354760169983 0.09396776556968689 -0.11013805866241455 0.11552560329437256 -0.09905704855918884 -0.11256015300750732 -0.07733838260173798 -0.053621187806129456 -0.060138821601867676 -0.03025577962398529 -0.0136023610830307 -0.1007813811302185 -0.1152111142873764 0.07150264084339142 -0.004693701863288879 0.06317684054374695 0.0376734733581543 0.10247264802455902 -0.08750896155834198 -0.06467024981975555 0.054580479860305786 0.047151729464530945 
0.07758662104606628 -0.0031936168670654297 -0.09834153950214386 0.021246910095214844 -0.007046952843666077 0.03706301748752594 -0.07600101828575134 -0.10612232983112335 0.05189114809036255 0.0018212050199508667 -0.04295364022254944 -0.04242485761642456 0.11162742972373962 -0.029567807912826538 -0.002272665500640869 0.06169390678405762 -0.035897061228752136 0.0006524771451950073 -0.06254686415195465 0.04046596586704254 -0.010442361235618591 0.01979580521583557 -0.10909256339073181 -0.028381481766700745 -0.055486828088760376 -0.04723717272281647 0.05794930458068848 -0.016387760639190674 -0.06185773015022278 -0.01471799612045288 -0.11345723271369934 -0.10835102200508118 
-0.011264920234680176 -0.003302335739135742 0.11716198921203613 0.02260066568851471 -0.0978543609380722 -0.0949360728263855 -0.034534722566604614 0.1194857507944107 -0.06815668940544128 -0.06728032231330872 0.0712835043668747 0.083481565117836 -0.08114790916442871 0.0800955593585968 0.10586214065551758 -0.034082621335983276 0.057020172476768494 -0.058226048946380615 0.09116904437541962 0.044458627700805664 -0.08103443682193756 0.06034940481185913 -0.02526804804801941 -0.0837913304567337 -0.040786758065223694 0.09713496267795563 -0.06064924597740173 -0.12238025665283203 0.04572266340255737 0.035436540842056274 -0.05504608154296875 0.007408082485198975 
-0.05581435561180115 0.026192203164100647 0.0121077299118042 -0.03632001578807831 -0.11718021333217621 0.010524928569793701 0.10725302994251251 -0.045504018664360046 -0.05221600830554962 0.06936511397361755 0.08695457875728607 -0.06277942657470703 -0.05681215226650238 0.0028506219387054443 0.03256666660308838 -0.12452438473701477 0.0008699893951416016 -0.08204379677772522 0.1191321313381195 0.045567840337753296 -0.1068531721830368 0.04238338768482208 0.039362043142318726 -0.09384402632713318 0.03625667095184326 0.053037941455841064 0.10213316977024078 -0.01368337869644165 0.10849952697753906 0.1215662807226181 -0.07583409547805786 -0.09081922471523285 
0.008517608046531677 -0.07915587723255157 0.08492358028888702 -0.05637522041797638 -0.08588163554668427 0.010287508368492126 0.05310092866420746 0.027302801609039307 -0.05046515166759491 0.01965673267841339 -0.05200427770614624 -0.06771685183048248 -0.06856988370418549 -0.12440498173236847 0.10388708114624023 0.05567851662635803 0.048159852623939514 0.003550410270690918 0.026205018162727356 -0.04111519455909729 0.11974385380744934 0.11884307861328125 -0.034688517451286316 -0.024284839630126953 -0.03918801248073578 -0.03192807734012604 0.11420056223869324 -0.07346543669700623 -0.11152125895023346 -0.1184762567281723 0.033681631088256836 -0.04194173216819763 
0.0745203047990799 0.11762858927249908 0.0016129910945892334 0.09345142543315887 -0.10257437825202942 -0.09747916460037231 0.026745617389678955 0.1136295348405838 -0.01719413697719574 -0.10015672445297241 -0.04853418469429016 0.042020753026008606 0.04590106010437012 -0.08645805716514587 -0.10145945847034454 -0.10989081859588623 -0.08908729255199432 -0.011910676956176758 0.05735836923122406 0.07244150340557098 -0.03964631259441376 0.07276654243469238 0.11461061239242554 -0.12252463400363922 0.06624342501163483 0.03689238429069519 -0.06622062623500824 -0.08460430800914764 -0.05054686963558197 0.08306004106998444 0.014559626579284668 0.0999697893857956 
-0.016628161072731018 -0.037858933210372925 0.054319992661476135 0.0315098762512207 0.025828808546066284 0.00899389386177063 -0.025306954979896545 -0.08336448669433594 -0.054035261273384094 0.09868712723255157 -0.0697219967842102 -0.12218798696994781 -0.038928985595703125 -0.11627238988876343 -0.03339861333370209 -0.07847294211387634 0.08452615141868591 -0.05651594698429108 0.07217897474765778 0.10795837640762329 0.06471468508243561 0.07947118580341339 -0.03531046211719513 0.10117849707603455 -0.12417732179164886 0.020137503743171692 -0.04867568612098694 0.07279957830905914 0.0971752256155014 0.019861921668052673 -0.0289573073387146 0.10473838448524475 
0.06747198104858398 -0.1171468049287796 -0.08995632827281952 0.003462553024291992 -0.08327633142471313 0.021503224968910217 0.054436132311820984 0.003731653094291687 0.014367088675498962 -0.11447463929653168 0.030069440603256226 -0.11127868294715881 -0.07004353404045105 0.06763137876987457 0.02902403473854065 -0.10817845165729523 0.07183262705802917 0.05428148806095123 -0.0005410164594650269 -0.06345190107822418 -0.11747017502784729 -0.04157133400440216 -0.023927196860313416 0.05384184420108795 0.06109364330768585 -0.04287707805633545 0.09922817349433899 0.11992737650871277 0.025292083621025085 -0.04679986834526062 -0.06239974498748779 0.0032030194997787476 
-0.08917978405952454 0.05160161852836609 -0.0598558634519577 0.07770144939422607 -0.003219127655029297 0.021579667925834656 -0.04804728925228119 0.11760653555393219 0.043800681829452515 0.07440118491649628 0.09631559252738953 -0.09898349642753601 -0.09455452859401703 0.12027624249458313 -0.0055678486824035645 0.0707838237285614 -0.08652850985527039 -0.10509131848812103 -0.053939059376716614 0.05443069338798523 0.07252998650074005 0.01604558527469635 -0.06739026308059692 0.02643837034702301 -0.10778288543224335 -0.005032211542129517 -0.04413527250289917 -0.06336374580860138 0.10222956538200378 -0.08664271235466003 -0.07736960053443909 -0.11247365176677704 
0.019860103726387024 -0.11933690309524536 0.09982620179653168 -0.07778662443161011 0.0270097553730011 -0.07684653997421265 0.03612242639064789 -0.09442384541034698 0.024277493357658386 0.08552207052707672 -0.03459201753139496 -0.03682836890220642 0.09307411313056946 -0.0851103812456131 0.08523036539554596 0.08056202530860901 0.03331337869167328 0.07716131210327148 0.06139548122882843 -0.0615953654050827 -0.0682947188615799 -0.10436931252479553 -0.03908570110797882 0.0198698490858078 -0.09870970249176025 -0.046980902552604675 -0.0753142237663269 -0.09551310539245605 -0.013226434588432312 0.02971622347831726 0.04425840079784393 -0.09462958574295044 
0.12279215455055237 -0.1131671816110611 -0.07738594710826874 -0.08295464515686035 0.0923626720905304 -0.10528238117694855 0.06041616201400757 -0.06344820559024811 0.1086803525686264 0.062090009450912476 0.10619252920150757 -0.022601202130317688 -0.041357606649398804 -0.09359407424926758 0.016953781247138977 0.06610025465488434 0.07927402853965759 -0.03367181122303009 -0.044135481119155884 0.11683693528175354 -0.07075130939483643 0.03982146084308624 -0.01503591239452362 0.0540681928396225 -0.09590305387973785 -0.12076155841350555 0.08868619799613953 0.1133517175912857 0.06916625797748566 0.12342530488967896 -0.06606088578701019 -0.10833631455898285 
-0.08508110046386719 -0.08757410943508148 -0.0342305451631546 0.09300816059112549 0.05700930953025818 0.08388926088809967 0.049103304743766785 -0.038946300745010376 0.11564812064170837 0.07739484310150146 -0.054643332958221436 0.030018731951713562 -0.026786580681800842 0.122881680727005 0.040301188826560974 0.032682254910469055 -0.030542075634002686 0.04399022459983826 -0.083894282579422 0.09210267663002014 -0.037574440240859985 0.04700970649719238 -0.10552161931991577 0.08695316314697266 -0.03481239080429077 0.058625221252441406 0.006368279457092285 -0.1246245801448822 -0.10842356085777283 -0.11079275608062744 -0.1210080236196518 0.08311611413955688 
0.09955234825611115 -0.08197024464607239 0.04596617817878723 0.1133720725774765 -0.12074227631092072 -0.035446539521217346 -0.018119394779205322 0.04389694333076477 -0.021202847361564636 0.06496328115463257 -0.01785232126712799 0.016938209533691406 -0.01582379639148712 -0.11102470755577087 -0.04909197986125946 0.034738972783088684 -0.05431912839412689 -0.06071460247039795 -0.03267514705657959 0.06066082417964935 -0.05939650535583496 -0.076427161693573 -0.06106401979923248 -0.08328954875469208 0.10297738015651703 -0.046364203095436096 -0.020393863320350647 0.07308235764503479 0.12471938133239746 0.08155673742294312 -0.06377151608467102 -0.11186428368091583 
-0.11182035505771637 0.06176158785820007 -0.039890989661216736 0.071198970079422 0.058725178241729736 -0.07349048554897308 0.023961395025253296 0.01357869803905487 0.04162567853927612 0.07805526256561279 0.018130943179130554 0.10446763038635254 0.014086857438087463 -0.05052100121974945 0.10985347628593445 0.07651130855083466 -0.026161998510360718 0.039307162165641785 -0.07685181498527527 0.04029396176338196 -0.04613162577152252 -0.07510244846343994 0.09891460835933685 -0.003293260931968689 -0.024265199899673462 0.09107606112957001 -0.10195745527744293 0.018156051635742188 -0.049723029136657715 0.03935988247394562 0.10676378011703491 0.11139693856239319 
-0.020907819271087646 -0.033921852707862854 -0.11164921522140503 0.08743667602539062 0.011669963598251343 -0.018263578414916992 -0.04041565954685211 -0.039183005690574646 -0.06785489618778229 -0.09656085073947906 0.03375260531902313 -0.04023607075214386 0.08066193759441376 0.01739819347858429 0.10154891014099121 -0.1052548736333847 0.009562969207763672 -0.08191971480846405 0.004886999726295471 0.09136863052845001 0.0977490097284317 0.025312721729278564 0.015561610460281372 -0.09451265633106232 0.023875564336776733 -0.03918340802192688 0.06805713474750519 0.06354822218418121 0.11692403256893158 0.08390794694423676 0.08133943378925323 0.010842695832252502 
-0.07699234783649445 -0.11804632842540741 0.07617339491844177 -0.06276662647724152 0.018155664205551147 -0.04334874451160431 -0.02855609357357025 0.01787598431110382 0.04740455746650696 -0.024544373154640198 0.04200902581214905 -0.1004197895526886 0.07235382497310638 0.04442237317562103 -0.10887788236141205 0.024477452039718628 -0.11448313295841217 0.052339211106300354 0.02166469395160675 -0.03857120871543884 -0.0880875289440155 -0.07137423753738403 0.08917732536792755 0.031226441264152527 -0.0024985969066619873 0.06397327780723572 0.08906373381614685 -0.12447810173034668 -0.08105635643005371 -0.09909999370574951 0.03046661615371704 -0.09629367291927338 
-0.000796005129814148 -0.0403667688369751 0.0915297418832779 0.09941737353801727 -0.0568142831325531 -0.1071501076221466 -0.06903482973575592 0.01593908667564392 0.05135007202625275 -0.10801523923873901 0.09135927259922028 -0.07589404284954071 0.09278847277164459 0.09673845767974854 0.03266534209251404 -0.0057461559772491455 -0.10377766191959381 0.11067648231983185 -0.045738667249679565 0.08040891587734222 -0.03713005781173706 -0.08604909479618073 0.01640734076499939 0.013139769434928894 -0.098934605717659 -0.12259656190872192 0.026878416538238525 0.05770580470561981 -0.12163268029689789 -0.06127999722957611 0.12412361800670624 -0.11799544095993042 
0.09721356630325317 0.09875606000423431 0.049171388149261475 -0.03141717612743378 0.0790017694234848 -0.04007837176322937 0.06815485656261444 0.04720766842365265 -0.12154899537563324 -0.0046721696853637695 0.0441867858171463 0.058567628264427185 0.02948896586894989 0.11417454481124878 -0.0634978860616684 -0.06418131291866302 -0.05874727666378021 -0.0025207102298736572 0.01720336079597473 0.0934886485338211 0.034475699067115784 0.008620575070381165 0.09301042556762695 -0.05949150025844574 0.037127748131752014 0.06358267366886139 0.08565793931484222 0.045303717255592346 0.0583379864692688 0.01488003134727478 -0.017457634210586548 -0.0014575421810150146 
-0.10112939774990082 0.015599027276039124 -0.06652021408081055 -0.10074032843112946 0.11539506912231445 0.0434078723192215 -0.04072868824005127 0.10504992306232452 0.06006805598735809 0.0900111049413681 0.0968482494354248 0.0668531060218811 0.07787138223648071 0.04901258647441864 -0.007867887616157532 0.10583558678627014 0.12158387899398804 0.05592428147792816 0.06159009039402008 -0.05025725066661835 -0.05137917399406433 0.012288928031921387 -0.04830041527748108 -0.05114986002445221 -0.09187647700309753 0.057766154408454895 0.08137667179107666 -0.06509861350059509 -0.12431953847408295 -0.09695731103420258 0.05241040885448456 -0.05529084801673889 
-0.02230079472064972 -0.09983721375465393 -0.07005153596401215 -0.07920219004154205 -0.020228013396263123 -0.06258571147918701 0.06289803981781006 -0.10224948823451996 -0.1203782707452774 0.08658865094184875 0.1093515008687973 -0.035814493894577026 0.08521109819412231 0.058486104011535645 -0.05781306326389313 -0.05600844323635101 0.1053844541311264 0.0950416773557663 -0.007406890392303467 -0.024836033582687378 -0.03657151758670807 -0.08361160755157471 -0.12196275591850281 0.06810177862644196 0.05157899856567383 0.08055023849010468 -0.02375034987926483 0.08740073442459106 -0.009689241647720337 0.011737808585166931 -0.1026107668876648 -0.0574524849653244 
-0.05811157822608948 0.031932905316352844 -0.056417316198349 0.059218063950538635 -0.09558036923408508 -0.09641870856285095 -0.1198449432849884 0.11391492187976837 0.11329995095729828 -0.042246073484420776 -0.05651302635669708 -0.10490339994430542 -0.0681762844324112 -0.11413419246673584 -0.050595805048942566 0.10400782525539398 -0.09719312191009521 -0.03073018789291382 0.016948938369750977 0.06337830424308777 -0.04904840886592865 0.05898366868495941 0.05050547420978546 0.12100057303905487 -0.10645848512649536 -0.023050233721733093 -0.008438318967819214 0.09769029915332794 -0.010566085577011108 0.028449922800064087 -0.11118456721305847 -0.09017550945281982 
0.07184082269668579 -0.10201278328895569 0.08876770734786987 -0.0866708904504776 -0.023743659257888794 -0.10346761345863342 0.07865829765796661 -0.123213991522789 0.09108603000640869 0.013559147715568542 0.058267444372177124 -0.06439042091369629 0.11307689547538757 -0.10859866440296173 -0.08015602827072144 0.11783002316951752 0.10030345618724823 -0.08693645894527435 0.1129147857427597 -0.05816042423248291 0.05348880589008331 0.03434808552265167 0.02338196337223053 -0.07080847024917603 0.06162834167480469 0.029133960604667664 0.010021194815635681 -0.0821351557970047 -0.11471368372440338 -0.0016742944717407227 -0.048677459359169006 -0.019286900758743286 
-0.023766517639160156 0.09059493243694305 0.10344590246677399 -0.05019494891166687 0.031060367822647095 -0.055150583386421204 -0.025783061981201172 0.05482366681098938 -0.016063779592514038 0.09093260765075684 -0.04725754261016846 0.12205792963504791 0.014927342534065247 0.07121571898460388 -0.07614386081695557 -0.04288718104362488 -0.07846584916114807 0.013549655675888062 0.09271840751171112 -0.08670324087142944 -0.03108242154121399 -0.043129563331604004 0.03725336492061615 -0.053409650921821594 0.10380421578884125 -0.05613680183887482 0.11843350529670715 -0.07765589654445648 0.004712313413619995 0.11622363328933716 0.08485428988933563 -0.09754149615764618 
0.09872213006019592 0.09814620018005371 0.04178999364376068 -0.06410005688667297 -0.020205125212669373 -0.04889920353889465 -0.017193123698234558 0.012250810861587524 -0.11047162115573883 -0.054644376039505005 -0.051204800605773926 0.0432591438293457 0.008275195956230164 -0.11876685917377472 0.1105356216430664 0.0411846786737442 0.08172674477100372 -0.017902761697769165 -0.09630019962787628 -0.056715384125709534 0.024693399667739868 0.06776067614555359 -0.10473456978797913 -0.09217330813407898 -0.029694899916648865 -0.0554080605506897 -0.055809617042541504 -0.05071045458316803 0.02002604305744171 0.03006356954574585 0.007668659090995789 0.06920669972896576 
-0.05536499619483948 -0.11210763454437256 -0.12486128509044647 0.01761212944984436 -0.02325005829334259 0.03520996868610382 0.024576961994171143 -0.062001630663871765 -0.020013153553009033 0.09147931635379791 -0.01997038722038269 0.07629603147506714 0.047151997685432434 -0.055608928203582764 0.07275842130184174 0.030459195375442505 -0.12422816455364227 -0.05261187255382538 -0.10438814759254456 0.08773961663246155 0.08619570732116699 -0.033768102526664734 -0.006004661321640015 -0.10967722535133362 -0.02209681272506714 -0.05269023776054382 -0.04744182527065277 -0.08848962187767029 0.04577769339084625 -0.046487197279930115 -0.07266132533550262 0.1132621020078659 
0.11460328102111816 -0.04856565594673157 0.030749842524528503 -0.08284065127372742 0.056815311312675476 0.05246704816818237 0.07023414969444275 0.04466618597507477 -0.04348154366016388 -0.04801012575626373 -0.041873618960380554 -0.08679860830307007 0.08165736496448517 0.04645782709121704 0.029877126216888428 0.026914522051811218 -0.110647052526474 0.10067006945610046 -0.0796576589345932 0.07127858698368073 0.11254969239234924 0.049072250723838806 -0.0645689070224762 -0.08516046404838562 0.041193887591362 -0.09439164400100708 0.01656229794025421 0.058666378259658813 -0.11828428506851196 -0.10135121643543243 -0.014256581664085388 -0.10675473511219025 
0.032688871026039124 0.10977248847484589 0.043648555874824524 0.06660029292106628 -0.07157109677791595 -0.01808212697505951 0.035544589161872864 0.06293797492980957 0.013130053877830505 0.05747923254966736 -0.040741920471191406 -0.02739882469177246 -0.02166898548603058 0.006785765290260315 0.10996831953525543 0.11927679181098938 -0.07885132730007172 0.11186762154102325 0.11283892393112183 0.0675959587097168 0.0936790257692337 -0.06243664026260376 -0.030502095818519592 -0.003825351595878601 0.11135530471801758 0.05521732568740845 -0.053709715604782104 0.05647854506969452 -0.06207446753978729 0.1103467047214508 -0.0250474214553833 0.07930624485015869 
-0.007003217935562134 0.02544042468070984 0.11985312402248383 -0.11846230924129486 0.09938278794288635 0.09334331750869751 0.07975028455257416 -0.1017429530620575 0.040999919176101685 -0.005703344941139221 0.03420335054397583 0.04040324687957764 0.022496044635772705 0.07210566103458405 -0.01916065812110901 0.11394165456295013 0.08573207259178162 0.019220024347305298 0.060142263770103455 0.10420501232147217 -0.07685984671115875 -0.07469616830348969 -0.09129227697849274 -0.05660073459148407 0.08661942183971405 -0.016951918601989746 0.04290437698364258 0.07632298767566681 -0.09157231450080872 -0.033075496554374695 0.028740301728248596 -0.0806024819612503 
0.09307096898555756 -0.08376380801200867 -0.14154788851737976 
0.06985272467136383 0.0774192065000534 0.1361539512872696 
-0.12434019893407822 -0.07714451849460602 0.16895325481891632 
-0.1419065147638321 -0.16564542055130005 -0.17191298305988312 
-0.14605695009231567 -0.16462548077106476 0.12016336619853973 
0.05988074839115143 -0.12726706266403198 -0.08428728580474854 
-0.06854959577322006 0.0873519629240036 -0.12305798381567001 
-0.1429990530014038 -1.2472271919250488e-05 0.040165647864341736 
0.06907474994659424 -0.16266044974327087 0.171213760972023 
-0.1041228175163269 -0.02455778419971466 -0.0871756374835968 
-0.10757868736982346 0.01975923776626587 0.02761387825012207 
-0.058964431285858154 0.08807380497455597 -0.02362421154975891 
-0.03122854232788086 0.07819800078868866 0.053064167499542236 
0.12919576466083527 -0.12920518219470978 0.16167886555194855 
0.04358847439289093 -0.048672616481781006 -0.06304603815078735 
-0.08294010907411575 0.1755167692899704 -0.14421096444129944 
0.00275343656539917 0.14844562113285065 -0.12233038246631622 
-0.12538588047027588 0.01373755931854248 -0.07450774312019348 
0.009335309267044067 0.14916609227657318 0.005516856908798218 
-0.01758435368537903 -0.12929292023181915 -0.0720067098736763 
0.04028226435184479 -0.08609509468078613 0.04701933264732361 
-0.11886580288410187 0.10270600020885468 -0.04226720333099365 
-0.1397431492805481 0.13911737501621246 -0.09590452164411545 
0.04497478902339935 -0.17643007636070251 -0.05106109380722046 
0.12809620797634125 0.12831543385982513 -0.07137187570333481 
-0.041076213121414185 -0.0673421248793602 0.11180369555950165 
0.02741938829421997 -0.13487568497657776 -0.08318283408880234 
-0.06208517402410507 -0.07811475545167923 -0.07031723111867905 
-0.1681058257818222 0.0164964497089386 -0.05317475646734238 
0.12785769999027252 0.09226612746715546 -0.1698293536901474 
-0.13322213292121887 0.17256443202495575 -0.054256461560726166 
0.13029329478740692 -0.13155950605869293 -0.06821290403604507 
0.07999445497989655 0.14471177756786346 0.14069245755672455 
